#include "simple_cnn.h"
#include "C:/Users/Lenovo/AppData/Roaming/Xilinx/Vitis/NN_library.h"
float conv_l1_weights[32][3][3] = {
		{-1.929244548082351685e-01,1.099907279014587402e+00,-9.824318289756774902e-01,
		 -1.434283703565597534e-01,-3.210980445146560669e-02,4.809331595897674561e-01,
		 -8.056182265281677246e-01,-9.995699673891067505e-02,-4.813455641269683838e-01},
		{1.003350019454956055e+00,-1.011947631835937500e+00,-2.658517360687255859e-01,
		2.481832951307296753e-01,-1.630178689956665039e-01,-8.742089271545410156e-01,
		9.677400588989257812e-01,-4.964797198772430420e-01,-9.416087269783020020e-01},
		{-9.713455438613891602e-01,5.448884963989257812e-01,-6.379436254501342773e-01,
		-7.116135358810424805e-01,5.139518380165100098e-01,3.760062456130981445e-01,
		-6.425138115882873535e-01,-3.841144442558288574e-01,6.525742411613464355e-01},
		{-6.216307878494262695e-01,-9.607293009757995605e-01,-1.191580295562744141e+00,
		-1.070156574249267578e+00,8.087099194526672363e-01,1.121853709220886230e+00,
		2.346964627504348755e-01,5.424505472183227539e-01,-2.878930568695068359e-01},
		{8.556264638900756836e-01,1.280712485313415527e-01,1.238258123397827148e+00,
		-6.627248525619506836e-01,-6.415215134620666504e-01,1.855691969394683838e-01,
	    -4.843979775905609131e-01,-2.735734283924102783e-01,-6.725346446037292480e-01},
		{6.804083585739135742e-01,-6.457821130752563477e-01,-1.920997053384780884e-01,
		-9.752880930900573730e-01,2.859617769718170166e-01,3.493342399597167969e-01,
		8.988984227180480957e-01,-7.208000123500823975e-02,7.953219115734100342e-02},
		{1.934240907430648804e-01,5.164883658289909363e-02,-2.642979621887207031e-01,
		6.786626577377319336e-01,6.873294711112976074e-01,6.618748307228088379e-01,
		-8.376951813697814941e-01,-7.216029763221740723e-01,2.092688083648681641e-01},
		{-9.708976149559020996e-01,5.862213969230651855e-01,5.500225424766540527e-01,
		 -3.374517560005187988e-01,-6.374048590660095215e-01,3.170795440673828125e-01,
		 -3.737837076187133789e-01,-6.006478071212768555e-01,-6.275844573974609375e-01},
		{-3.557143509387969971e-01,6.854686737060546875e-01,3.344350457191467285e-01,
		 6.298223733901977539e-01,4.476135075092315674e-01,-8.729115724563598633e-01,
	     6.003588438034057617e-02,-7.700832486152648926e-01,-1.794034838676452637e-01},
		{7.630971074104309082e-02,-6.179130077362060547e-01,-7.869681119918823242e-01,
		-7.458658218383789062e-01,-8.002766370773315430e-01,-7.024170160293579102e-01,
		8.625664710998535156e-01,5.586774945259094238e-01,-9.032306075096130371e-02},
		{1.530322432518005371e-01,5.039199590682983398e-01,-3.362676799297332764e-01,
		-2.523191273212432861e-01,3.431099355220794678e-01,4.242780506610870361e-01,
		4.022280499339103699e-02,-6.652569770812988281e-02,9.839574992656707764e-02},
		{9.220653772354125977e-01,3.045477271080017090e-01,-1.569050669670104980e+00,
		-5.875732749700546265e-02,6.397818922996520996e-01,-9.211176633834838867e-02,
		-2.771727740764617920e-01,4.509569704532623291e-01,7.558547258377075195e-01},
		{6.353272795677185059e-01,7.943431138992309570e-01,1.086305156350135803e-01,
		-6.003682613372802734e-01,2.417316436767578125e-01,-1.144057989120483398e+00,
		-1.298526406288146973e+00,-3.709873557090759277e-01,-6.757714152336120605e-01},
		{4.517905712127685547e-01,-3.118841350078582764e-01,-7.174832224845886230e-01,
		-3.445969521999359131e-01,7.282662987709045410e-01,3.626747131347656250e-01,
		-8.873210102319717407e-02,-7.153126001358032227e-01,-4.626841545104980469e-01},
		{-5.045633316040039062e-01,-1.851759701967239380e-01,3.296249806880950928e-01,
		-2.600553631782531738e-01,1.423838920891284943e-02,2.111313790082931519e-01,
		7.818237543106079102e-01,-1.045953512191772461e+00,1.326518058776855469e-01},
		{-6.080529093742370605e-01,-1.069625854492187500e+00,8.793622851371765137e-01,
		-2.926186025142669678e-01,-8.110964298248291016e-01,6.326918601989746094e-01,
		-6.168633699417114258e-01,4.094538092613220215e-01,6.156729459762573242e-01},
		{-7.880921959877014160e-01,-1.052797794342041016e+00,-4.815875291824340820e-01,
		6.960194706916809082e-01,4.324181377887725830e-01,-8.945391774177551270e-01,
		1.572927534580230713e-01,6.837875843048095703e-01,3.387518525123596191e-01},
		{1.107503294944763184e+00,3.913491964340209961e-01,-1.205849289894104004e+00,
		-1.152723670005798340e+00,4.764071106910705566e-01,7.225335240364074707e-01,
		-3.167181611061096191e-01,2.839114367961883545e-01,2.235259413719177246e-01},
		{-7.220748066902160645e-01,-5.991068482398986816e-02,-6.214699745178222656e-01,
		 7.944583147764205933e-02,1.233662962913513184e+00,1.796071380376815796e-01,
		-5.570999383926391602e-01,5.739178657531738281e-01,-1.019879221916198730e+00},
		{-8.032789826393127441e-01,-2.837401330471038818e-01,7.260683178901672363e-01,
		 -8.588065505027770996e-01,6.033120155334472656e-01,1.460162848234176636e-01,
		 -6.595992296934127808e-02,-9.080350399017333984e-01,-7.883226871490478516e-01},
		{-1.081637382507324219e+00,-4.029381573200225830e-01,9.762934446334838867e-01,
		-8.448270559310913086e-01,1.032451391220092773e+00,2.489180415868759155e-01,
		8.642718791961669922e-01,2.855772078037261963e-01,-9.774766564369201660e-01},
		{-1.664954721927642822e-01,2.557412385940551758e-01,5.949895381927490234e-01,
		 -8.293873071670532227e-01,-1.071767807006835938e+00,1.210115253925323486e-01,
		 9.540989398956298828e-01,2.069764733314514160e-01,-1.016095399856567383e+00},
		{-8.923279047012329102e-01,4.543218612670898438e-01,5.005331337451934814e-02,
		 -7.111313939094543457e-01,5.276214331388473511e-03,8.262150287628173828e-01,
		 -5.243429541587829590e-01,-5.239880084991455078e-01,5.409470796585083008e-01},
		{-5.209918618202209473e-01,-4.653263986110687256e-01,9.578908234834671021e-02,
		 -3.790283203125000000e-02,-4.475634917616844177e-02,-5.676460862159729004e-01,
		7.466095089912414551e-01,-7.405609488487243652e-01,-3.673169910907745361e-01},
		{-1.038516640663146973e+00,-3.694718778133392334e-01,-6.377532482147216797e-01,
		-1.081588328815996647e-03,-3.122598826885223389e-01,-8.263981342315673828e-01,
		3.756900429725646973e-01,7.837818264961242676e-01,-8.568076789379119873e-02},
		{-1.526798307895660400e-01,-1.027996420860290527e+00,7.190669178962707520e-01,
		-1.351430267095565796e-01,1.975556313991546631e-01,4.324431121349334717e-01,
		-7.521566152572631836e-01,-8.637375831604003906e-01,4.117890298366546631e-01},
		{7.600038647651672363e-01,-8.133154511451721191e-01,5.599945187568664551e-01,
		 -1.406690180301666260e-01,4.527290761470794678e-01,-1.057479619979858398e+00,
		 6.703283190727233887e-01,2.605347037315368652e-01,-4.329519867897033691e-01},
		{-7.296695709228515625e-01,-9.051889181137084961e-01,-7.072087526321411133e-01,
		 -1.226876139640808105e+00,2.315675467252731323e-01,-4.855950176715850830e-01,
		 -2.984875440597534180e-01,2.655721902847290039e-01,1.181742787361145020e+00},
		{7.962029194459319115e-04,5.061402916908264160e-01,3.893025219440460205e-01,
	    -5.384856462478637695e-01,-9.569727182388305664e-01,1.732427626848220825e-01,
		 4.132733047008514404e-01,2.477959245443344116e-01,3.662379384040832520e-01},
		{6.215788722038269043e-01,2.480262219905853271e-01,-8.787816762924194336e-02,
		3.850933313369750977e-01,-8.694297671318054199e-01,1.619854122400283813e-01,
		3.795837759971618652e-01,-5.645243525505065918e-01,-4.885659813880920410e-01},
		{5.926082134246826172e-01,-6.998311281204223633e-01,-6.683899164199829102e-01,
		-4.613250195980072021e-01,8.366556167602539062e-01,-1.110465973615646362e-01,
		2.030468881130218506e-01,-6.350449323654174805e-01,-7.793414592742919922e-01},
		{-2.295605242252349854e-01,8.546702265739440918e-01,2.770137190818786621e-01,
		-7.964258193969726562e-01,1.947327554225921631e-01,-1.821879595518112183e-01,
		-2.067012786865234375e-01,-7.130188345909118652e-01,2.239875197410583496e-01}
};
float conv_l1_biases[32] = {
		-2.947459928691387177e-02,
		-4.474112391471862793e-01,
		-9.748288989067077637e-02,
		-2.635663747787475586e-01,
		-6.810626387596130371e-01,
		-3.572001755237579346e-01,
		-7.211236953735351562e-01,
		-9.095223620533943176e-03,
		-4.176936149597167969e-01,
		-5.525202304124832153e-02,
		-5.836349725723266602e-01,
		-1.181124210357666016e+00,
		-6.064317375421524048e-02,
		4.905203823000192642e-03,
		-1.278966665267944336e-02,
		-7.829775214195251465e-01,
		-3.418900072574615479e-01,
		-6.327602863311767578e-01,
		-8.125511812977492809e-04,
		1.634032465517520905e-02,
		-8.233867287635803223e-01,
		5.232521332800388336e-03,
		-3.142267763614654541e-01,
		5.575207620859146118e-02,
		-5.380267649888992310e-02,
		-2.285753488540649414e-01,
		-4.915312528610229492e-01,
		-1.660475134849548340e-02,
		-5.492498874664306641e-01,
		-4.702047109603881836e-01,
		1.250473875552415848e-02,
		-1.196956858038902283e-01
};

float relu_l1_weights[5408][10] = {
	3.269316628575325012e-02,-5.565758328884840012e-03,-1.486348360776901245e-02,-6.734092254191637039e-03,-1.875774562358856201e-02,1.594278588891029358e-02,-1.054026279598474503e-02,3.014377318322658539e-02,-2.110129594802856445e-02,2.466653846204280853e-02
,7.976117543876171112e-03,-2.629330940544605255e-02,1.855453848838806152e-02,-2.567016333341598511e-02,1.105808559805154800e-02,-1.616716012358665466e-02,-2.317247539758682251e-02,-8.673574775457382202e-03,-2.384657226502895355e-02,2.585716731846332550e-02
,1.136613078415393829e-02,3.383532166481018066e-02,-2.869440242648124695e-02,-1.143052615225315094e-02,4.513162188231945038e-03,3.214179351925849915e-02,4.658399615436792374e-03,1.716186478734016418e-02,1.148690003901720047e-02,1.165597327053546906e-02
,-7.594373077154159546e-03,-2.756164595484733582e-02,1.018510013818740845e-02,9.913235902786254883e-03,1.904660277068614960e-02,-2.627739449962973595e-04,-2.939975261688232422e-02,-2.675799094140529633e-02,1.366854831576347351e-02,2.114907465875148773e-02
,4.624908324331045151e-03,-8.847576566040515900e-03,-1.701587624847888947e-02,-7.687822915613651276e-03,-2.711676526814699173e-03,1.659991219639778137e-02,2.005286514759063721e-02,-2.045167796313762665e-02,1.302235946059226990e-02,-8.604956790804862976e-03
,-2.486903406679630280e-02,1.937703788280487061e-02,-3.909600898623466492e-03,2.158486470580101013e-02,2.920896001160144806e-02,-3.432005643844604492e-03,-2.832623943686485291e-02,-6.665380671620368958e-03,1.123450510203838348e-02,1.052534859627485275e-02
,2.521569468080997467e-02,2.714039012789726257e-02,-3.318106755614280701e-02,-1.936212927103042603e-02,-2.676518820226192474e-02,1.003093458712100983e-02,-2.913235686719417572e-02,-3.001112490892410278e-02,2.577396482229232788e-02,3.261783719062805176e-02
,8.173784241080284119e-03,1.907636970281600952e-02,4.993964103050529957e-04,3.072874806821346283e-02,-2.181287854909896851e-02,7.471893448382616043e-03,1.331519894301891327e-02,1.747835427522659302e-02,2.425358444452285767e-02,-1.514359749853610992e-02
,1.161346770823001862e-02,2.028613910079002380e-02,-2.539175562560558319e-02,-1.400520745664834976e-02,-6.605959031730890274e-03,6.081351544708013535e-03,-5.880726035684347153e-03,1.465435605496168137e-02,1.740307547152042389e-02,-8.746736682951450348e-03
,8.024556562304496765e-03,-2.832790836691856384e-02,-1.456423662602901459e-02,1.174661982804536819e-02,-6.424624007195234299e-03,-2.254114486277103424e-02,-1.487185247242450714e-02,-8.968438021838665009e-03,2.014706283807754517e-02,2.500721067190170288e-02
,-1.684513874351978302e-02,-1.055565569549798965e-02,-7.499568164348602295e-03,1.476212218403816223e-02,-2.573642507195472717e-02,1.695420220494270325e-02,2.613254263997077942e-02,8.783663623034954071e-03,1.136269513517618179e-02,1.327786687761545181e-02
,-1.434898003935813904e-02,3.094276040792465210e-02,-1.355312764644622803e-03,5.366938188672065735e-03,-2.687649615108966827e-02,-1.538369804620742798e-03,-1.516750920563936234e-02,-3.237295895814895630e-02,3.393302671611309052e-03,-2.115142159163951874e-02
,2.342010661959648132e-02,2.677258849143981934e-02,9.917689487338066101e-03,-2.324115484952926636e-03,-8.203819394111633301e-03,-4.484020173549652100e-03,-3.236478939652442932e-02,2.472688630223274231e-02,-1.858149468898773193e-02,3.996026702225208282e-03
,-1.118276640772819519e-02,3.181125223636627197e-02,-2.397892065346240997e-02,-1.219011936336755753e-02,-1.776582933962345123e-02,-1.833746954798698425e-02,-3.122193552553653717e-02,3.067700192332267761e-02,3.070270456373691559e-02,3.181118518114089966e-02
,-1.002154778689146042e-02,-1.940961182117462158e-02,1.452000811696052551e-02,-7.781344000250101089e-03,-1.956302486360073090e-02,-1.870465464890003204e-02,3.097656741738319397e-02,-1.003955584019422531e-02,-3.218615800142288208e-02,6.244894582778215408e-03
,3.262192383408546448e-02,1.543187908828258514e-02,-2.061353065073490143e-02,-2.490659616887569427e-02,3.271627798676490784e-02,-5.573131609708070755e-03,7.806276902556419373e-03,-2.818250656127929688e-02,1.719656586647033691e-02,2.356608025729656219e-02
,1.071654539555311203e-02,-2.099126577377319336e-02,-1.311755925416946411e-02,1.809616759419441223e-02,-2.843757160007953644e-02,-2.721987105906009674e-02,-1.135287899523973465e-02,2.520405501127243042e-02,-1.921631046570837498e-03,2.024248987436294556e-02
,9.055872447788715363e-03,-1.553813228383660316e-03,-2.591387927532196045e-02,2.510988526046276093e-02,-1.425938401371240616e-02,1.519609894603490829e-02,-4.549722187221050262e-03,-2.904672175645828247e-02,2.689006365835666656e-02,3.171055763959884644e-02
,-3.456101939082145691e-02,3.257348015904426575e-02,9.160265326499938965e-04,2.359073981642723083e-02,2.927801012992858887e-02,1.361346989870071411e-02,-2.304127998650074005e-02,1.480663660913705826e-02,2.871319884434342384e-03,1.183954626321792603e-02
,-2.033718861639499664e-02,-2.017665468156337738e-02,-1.596573740243911743e-02,2.903615124523639679e-03,-1.601994223892688751e-02,-2.396180480718612671e-02,-3.110634163022041321e-02,9.709731675684452057e-03,-2.311020158231258392e-02,2.506062760949134827e-02
,-2.637560851871967316e-02,1.458769850432872772e-02,-3.651903942227363586e-03,9.684605523943901062e-03,3.107170388102531433e-02,-1.073445938527584076e-02,8.040609536692500114e-04,3.150982409715652466e-02,-2.610701881349086761e-02,-7.047293474897742271e-04
,9.134298190474510193e-03,-2.648101374506950378e-02,1.743040978908538818e-02,2.341537270694971085e-03,1.290845777839422226e-02,1.426366530358791351e-02,2.226903889095410705e-04,4.697017837315797806e-03,-6.282810121774673462e-03,-3.252212703227996826e-02
,-7.781959604471921921e-03,-3.032581135630607605e-02,3.186910599470138550e-02,-1.506608072668313980e-02,6.346465554088354111e-03,-8.978968486189842224e-03,2.539845183491706848e-02,-2.567364461719989777e-02,-1.326289586722850800e-02,-2.980233915150165558e-02
,-2.218205668032169342e-02,-2.561986446380615234e-02,-3.397219115868210793e-03,-5.511435447260737419e-04,-1.947080902755260468e-02,1.529141236096620560e-02,-2.152331359684467316e-02,-3.070974163711071014e-02,7.275643292814493179e-03,-4.630198236554861069e-03
,9.893077425658702850e-03,2.886634133756160736e-02,8.533582091331481934e-03,2.311334200203418732e-02,-3.005978092551231384e-02,1.319628208875656128e-02,-1.314902678132057190e-02,-3.781811567023396492e-03,-1.353213749825954437e-02,-3.889859840273857117e-02
,1.220439001917839050e-02,-1.748489402234554291e-02,-2.669332735240459442e-02,1.306664291769266129e-02,-1.422186568379402161e-02,-8.105657994747161865e-03,-6.057612597942352295e-03,1.340855285525321960e-02,4.384316038340330124e-03,-2.244352363049983978e-02
,2.377078868448734283e-02,1.641865074634552002e-02,-8.623160421848297119e-03,-1.704376563429832458e-02,-2.722888812422752380e-02,-5.904674530029296875e-03,8.210084401071071625e-03,4.625670611858367920e-03,-3.102552145719528198e-02,8.312242105603218079e-03
,-1.499225944280624390e-02,1.784162246622145176e-03,-2.685574814677238464e-02,-6.116371136158704758e-03,2.290001697838306427e-02,-3.078441508114337921e-02,1.133763790130615234e-02,-1.238721515983343124e-02,1.516102231107652187e-03,9.723487310111522675e-03
,-1.895326375961303711e-02,2.052319049835205078e-02,-2.177898772060871124e-02,-1.244577765464782715e-02,2.602350711822509766e-02,7.480390369892120361e-03,3.038563020527362823e-02,7.870670408010482788e-03,-3.833631752058863640e-03,2.036671340465545654e-02
,-2.039152942597866058e-02,-2.329504117369651794e-02,-9.696278721094131470e-03,1.760401949286460876e-02,-3.137762099504470825e-02,-2.934411168098449707e-05,2.449213713407516479e-02,1.861993968486785889e-02,7.578998065582709387e-06,-2.549329958856105804e-02
,3.389637172222137451e-02,3.458593273535370827e-04,2.473908104002475739e-02,-6.386289373040199280e-03,-4.243365488946437836e-03,6.003723945468664169e-03,-1.085065491497516632e-02,-2.824619226157665253e-02,-3.265631943941116333e-02,-1.370802707970142365e-02
,1.665024086833000183e-02,3.320173174142837524e-02,2.659074962139129639e-03,-1.134629175066947937e-02,9.611417539417743683e-03,-8.952260017395019531e-03,-3.250415623188018799e-02,-2.767124027013778687e-02,-8.385536260902881622e-03,-1.906823366880416870e-02
,8.470136672258377075e-03,-3.212140407413244247e-03,3.011015802621841431e-02,3.351500257849693298e-03,-1.137580536305904388e-02,-1.341553777456283569e-02,-2.307898923754692078e-02,-1.198988314718008041e-02,8.599678054451942444e-03,-2.304132655262947083e-02
,3.183026611804962158e-02,3.102912008762359619e-02,-9.981038747355341911e-04,-3.064843825995922089e-02,2.193742804229259491e-02,-3.077240660786628723e-02,-1.031523849815130234e-02,-3.224074840545654297e-02,-2.016672305762767792e-02,-1.715984009206295013e-02
,2.944604121148586273e-02,-1.581280119717121124e-02,-2.475529164075851440e-02,2.299671247601509094e-02,-2.335086278617382050e-02,2.574424445629119873e-02,2.614260651171207428e-02,-1.795580051839351654e-02,-2.479507960379123688e-02,2.209794241935014725e-03
,1.409966591745615005e-02,-1.399918273091316223e-02,9.496562182903289795e-03,2.255485206842422485e-02,-4.402995109558105469e-03,1.252355799078941345e-02,-1.563785783946514130e-02,4.625068046152591705e-03,-3.105663880705833435e-02,-2.555971592664718628e-02
,2.640374936163425446e-03,1.623834297060966492e-02,2.214900031685829163e-02,3.030130825936794281e-02,-1.913683302700519562e-02,2.170596644282341003e-02,-1.481708791106939316e-02,-1.913371309638023376e-02,4.159588366746902466e-03,1.877148449420928955e-02
,3.185509517788887024e-02,1.716927811503410339e-02,-1.204013265669345856e-02,2.353002130985260010e-02,2.896941080689430237e-02,-2.697130106389522552e-02,1.241011917591094971e-02,1.116711646318435669e-02,2.719341591000556946e-02,1.299735624343156815e-03
,3.238131478428840637e-02,-2.952231327071785927e-03,-1.201931480318307877e-02,-2.751508168876171112e-02,1.591907069087028503e-02,-6.397298071533441544e-03,6.433393806219100952e-03,1.622586883604526520e-02,2.209261804819107056e-02,9.240434737876057625e-04
,1.385052502155303955e-02,2.179179340600967407e-02,2.450686320662498474e-02,-1.860831119120121002e-02,-3.118753246963024139e-02,-3.017862327396869659e-02,-9.783796034753322601e-03,-1.220784615725278854e-02,-2.869115024805068970e-02,3.265335410833358765e-02
,-2.783110830932855606e-03,1.143568311817944050e-03,8.036449551582336426e-03,6.341843865811824799e-03,-1.710951142013072968e-02,1.520277932286262512e-02,3.998157102614641190e-03,-2.656046114861965179e-02,7.147365715354681015e-03,1.752306520938873291e-02
,1.657618023455142975e-02,-3.139012679457664490e-02,-1.620922796428203583e-02,9.587851352989673615e-03,2.443035505712032318e-02,-6.980260368436574936e-04,-2.998912520706653595e-02,-3.135204315185546875e-02,3.129680082201957703e-02,-1.343080401420593262e-02
,-2.405792847275733948e-02,3.082906082272529602e-02,2.214710041880607605e-02,2.977676689624786377e-02,1.343301497399806976e-02,2.429909631609916687e-02,1.824946328997612000e-02,-5.145537201315164566e-03,9.791410528123378754e-03,4.866661329288035631e-04
,-2.955882064998149872e-02,2.208441495895385742e-02,2.781246230006217957e-02,-2.254118025302886963e-02,2.387869730591773987e-02,1.961356401443481445e-02,-1.745125651359558105e-02,-2.369896508753299713e-02,-3.035699389874935150e-02,1.818959135562181473e-03
,1.116730365902185440e-02,1.431149337440729141e-02,-2.351917512714862823e-02,-1.892801374197006226e-02,-1.902792975306510925e-02,1.304991822689771652e-02,2.744440734386444092e-02,-2.378223277628421783e-02,1.687507610768079758e-03,-5.461412947624921799e-03
,2.517792629078030586e-03,1.323120575398206711e-02,-9.330825880169868469e-03,-1.259666681289672852e-02,-6.275521125644445419e-03,-3.218630328774452209e-02,-9.457022882997989655e-03,-1.139717269688844681e-02,-2.311995252966880798e-02,9.684151969850063324e-03
,-2.724053524434566498e-02,1.811473816633224487e-02,-2.952818758785724640e-02,4.768996499478816986e-03,-1.626238226890563965e-02,-3.289536759257316589e-02,2.587721496820449829e-02,1.472843438386917114e-02,2.634239941835403442e-02,2.095770835876464844e-02
,2.654577977955341339e-02,7.723559625446796417e-03,-2.276367321610450745e-02,-1.207211241126060486e-02,-1.323265396058559418e-02,2.251109667122364044e-02,-1.850951090455055237e-02,1.736565143801271915e-03,-3.158633038401603699e-02,-9.941579628502950072e-05
,3.313550353050231934e-02,1.452120952308177948e-02,-8.030658587813377380e-03,2.017012797296047211e-02,3.067245520651340485e-02,3.263083100318908691e-02,9.843023726716637611e-04,2.090741693973541260e-02,2.788091078400611877e-02,3.008174523711204529e-02
,-1.342096179723739624e-02,-1.763175427913665771e-02,-2.023054100573062897e-02,-1.414199452847242355e-02,8.230074308812618256e-03,-3.008927032351493835e-02,-1.855488680303096771e-02,1.645810529589653015e-02,-3.126801922917366028e-02,1.131909806281328201e-02
,-1.426381152123212814e-02,1.645383797585964203e-02,1.135729998350143433e-02,1.533508207648992538e-02,-2.915652701631188393e-03,4.314524587243795395e-03,-2.682971023023128510e-02,-1.123754191212356091e-03,2.641676738858222961e-02,-2.078892476856708527e-02
,-1.164524257183074951e-02,1.827779039740562439e-02,1.242921035736799240e-02,4.065100476145744324e-02,1.023885048925876617e-02,-2.184890583157539368e-02,-1.101129688322544098e-02,-3.188460320234298706e-02,-2.005514875054359436e-02,2.372106350958347321e-02
,1.199200004339218140e-02,-3.200353682041168213e-02,-5.078703165054321289e-03,1.099920179694890976e-02,3.530239453539252281e-03,-1.247608009725809097e-02,-3.707631956785917282e-03,-1.572073809802532196e-02,-4.792647436261177063e-03,2.766499854624271393e-02
,-3.221217542886734009e-02,-1.643398962914943695e-02,3.892280161380767822e-03,8.317030034959316254e-03,-1.927528716623783112e-02,2.230557240545749664e-02,-3.250160487368702888e-03,-2.567454241216182709e-03,-2.922747470438480377e-02,2.458621049299836159e-03
,-2.627480588853359222e-02,-2.970781177282333374e-02,-9.681327268481254578e-03,2.662700368091464043e-03,6.539368536323308945e-03,2.798085100948810577e-03,-2.587736770510673523e-02,-2.905763313174247742e-02,-4.420049954205751419e-03,-2.368993312120437622e-02
,1.677426509559154510e-02,-2.714129351079463959e-02,2.386385388672351837e-02,2.621294371783733368e-02,2.876405976712703705e-02,-2.313595078885555267e-02,-3.735307231545448303e-02,-3.237832337617874146e-02,-1.526081562042236328e-02,-3.311094269156455994e-02
,1.620922796428203583e-02,1.554628089070320129e-02,-2.909290418028831482e-02,-2.665924141183495522e-03,-4.409931600093841553e-03,-2.413919940590858459e-02,2.425326034426689148e-02,1.446604914963245392e-02,2.193500660359859467e-02,1.046896819025278091e-02
,-4.708848893642425537e-03,-2.079254388809204102e-02,-2.965244650840759277e-02,2.261536940932273865e-02,8.216192014515399933e-03,-2.454031631350517273e-02,2.016992680728435516e-02,-9.197907522320747375e-03,1.961380429565906525e-02,-2.441476099193096161e-02
,7.753689424134790897e-04,2.456545829772949219e-03,1.691058278083801270e-04,-3.162360191345214844e-02,-2.253858186304569244e-02,9.958768263459205627e-03,1.024052221328020096e-02,3.117737174034118652e-02,2.783711813390254974e-02,-3.145480901002883911e-02
,1.896395534276962280e-02,3.335408493876457214e-02,-4.137732554227113724e-03,1.568670943379402161e-02,2.264563553035259247e-02,-1.597185991704463959e-02,7.871286012232303619e-03,-4.668268840759992599e-03,1.094083953648805618e-02,1.000920194201171398e-03
,2.736352756619453430e-02,2.960525453090667725e-03,-2.327377349138259888e-02,2.152235247194766998e-02,1.344180665910243988e-03,6.911430507898330688e-03,-4.014799837023019791e-03,8.539400994777679443e-03,-6.727566476911306381e-03,-1.983152516186237335e-02
,1.820882409811019897e-02,-1.104011898860335350e-04,-2.503485977649688721e-02,-1.461478043347597122e-02,6.983854807913303375e-03,3.979787230491638184e-03,-1.991792954504489899e-02,2.857741340994834900e-02,2.294891281053423882e-03,-1.421355083584785461e-02
,1.058784034103155136e-02,-3.119229897856712341e-02,5.819142796099185944e-03,1.206376496702432632e-02,3.380900993943214417e-02,-4.906703252345323563e-04,-1.155580952763557434e-02,-2.499442733824253082e-02,-4.699244163930416107e-03,-2.042848803102970123e-02
,9.120355360209941864e-03,2.446825802326202393e-02,-8.335847407579421997e-03,2.629622258245944977e-02,-9.059026837348937988e-03,-2.415359579026699066e-02,-1.655262336134910583e-02,1.135281939059495926e-02,2.340645715594291687e-02,3.088364936411380768e-02
,3.476407146081328392e-03,-7.328898645937442780e-03,1.422564685344696045e-02,2.557175699621438980e-03,1.805958524346351624e-02,-2.324242889881134033e-02,-8.204918121919035912e-04,1.787687651813030243e-02,-2.017008699476718903e-02,-2.524141967296600342e-02
,1.053014956414699554e-02,-3.305029356852173805e-03,-4.791569430381059647e-03,-2.534606866538524628e-02,-2.271414734423160553e-02,2.720720320940017700e-02,-6.335593760013580322e-03,2.969106892123818398e-03,-1.265307236462831497e-02,3.050389885902404785e-02
,2.864024229347705841e-02,-2.730313129723072052e-02,-2.452749945223331451e-02,-2.337914146482944489e-02,-3.404894098639488220e-02,-8.644896559417247772e-03,-5.960433743894100189e-03,-1.297537982463836670e-02,-2.451550681143999100e-03,-2.217829972505569458e-02
,4.664755542762577534e-04,-1.912745647132396698e-02,3.268027305603027344e-02,1.514982338994741440e-02,2.560056000947952271e-02,3.061264939606189728e-02,-1.403213106095790863e-02,3.087145648896694183e-02,-4.020841047167778015e-02,-7.072158623486757278e-03
,-5.476779770106077194e-03,-2.222291566431522369e-02,1.903208717703819275e-02,4.099058918654918671e-03,1.291070319712162018e-02,-1.220157463103532791e-02,3.329140320420265198e-02,-2.209139056503772736e-02,-1.473750360310077667e-02,-1.868047378957271576e-02
,1.438885089010000229e-02,-2.628541924059391022e-02,3.285942971706390381e-02,2.218573726713657379e-02,-4.101894330233335495e-03,5.143344867974519730e-03,3.266164660453796387e-02,-1.203194027766585350e-03,-2.368935942649841309e-02,-2.620939537882804871e-02
,1.070748921483755112e-02,1.441369391977787018e-02,5.748466937802731991e-04,2.232211874797940254e-03,-1.678418926894664764e-02,5.806421395391225815e-03,-8.094857446849346161e-03,2.824257127940654755e-02,-2.745333872735500336e-02,2.239191532135009766e-02
,1.026719156652688980e-02,-2.643558382987976074e-02,8.493112400174140930e-03,1.164060365408658981e-02,6.889841519296169281e-03,-3.285346180200576782e-02,-1.331524737179279327e-02,-2.325630560517311096e-02,1.573866605758666992e-02,-1.321912929415702820e-02
,1.982224918901920319e-02,3.141685947775840759e-02,-1.532041653990745544e-02,2.212008694186806679e-03,-2.737528830766677856e-02,-1.235236879438161850e-02,1.840746589004993439e-02,1.544317975640296936e-02,-1.384258270263671875e-03,9.149248944595456123e-04
,-1.830865442752838135e-02,-2.133431285619735718e-02,2.635166421532630920e-02,-2.187310345470905304e-02,-3.510974347591400146e-02,-3.622035309672355652e-02,-2.384463138878345490e-02,-1.598035916686058044e-02,-5.313229188323020935e-02,-1.794252172112464905e-02
,-1.386426761746406555e-02,-8.083811961114406586e-03,-3.077631630003452301e-02,1.815364509820938110e-02,-2.408575639128684998e-02,1.973497681319713593e-02,2.642155997455120087e-02,1.369967777281999588e-02,1.425782870501279831e-02,1.031628064811229706e-02
,3.624196862801909447e-03,2.567203342914581299e-02,-3.982424736022949219e-03,-9.282303042709827423e-03,1.075305882841348648e-02,4.024993104394525290e-04,-9.922277182340621948e-03,-1.364608760923147202e-02,-2.835926972329616547e-02,-2.565402723848819733e-02
,-2.570179849863052368e-02,-2.013630792498588562e-02,-1.265535876154899597e-02,3.007403807714581490e-03,7.078097667545080185e-03,-3.113675862550735474e-02,2.168985269963741302e-02,-2.301047556102275848e-02,2.692778361961245537e-04,-1.823982805944979191e-03
,-2.449928969144821167e-02,-2.894160151481628418e-02,2.453318051993846893e-02,-7.178923115134239197e-03,2.672601491212844849e-02,-1.750200428068637848e-02,-3.730219323188066483e-03,-2.927203848958015442e-02,-1.618297584354877472e-02,3.052129410207271576e-02
,-2.909588813781738281e-02,1.411873847246170044e-02,2.193827554583549500e-02,-6.203345023095607758e-03,-6.926506292074918747e-03,2.823041751980781555e-02,2.113671042025089264e-02,-1.629651524126529694e-02,1.178229972720146179e-02,-2.025566808879375458e-02
,-3.610515967011451721e-03,-1.675219088792800903e-02,-2.575098536908626556e-02,3.737708553671836853e-02,-2.493784017860889435e-02,2.174476720392704010e-02,-2.963433228433132172e-02,2.721953950822353363e-02,-2.020915038883686066e-02,6.731300614774227142e-03
,1.511185988783836365e-02,-1.687514036893844604e-02,-1.358170062303543091e-03,-6.623078137636184692e-03,-9.164811111986637115e-03,2.406964264810085297e-02,9.049872867763042450e-03,-4.844533745199441910e-03,-4.391599074006080627e-02,5.445619579404592514e-03
,-1.876498572528362274e-02,-8.580738678574562073e-03,-1.333316043019294739e-02,2.375919744372367859e-02,9.568361565470695496e-03,1.659850217401981354e-02,-2.965114079415798187e-02,2.664466202259063721e-02,-1.574476249516010284e-02,-2.969469642266631126e-03
,8.984602056443691254e-03,2.707307413220405579e-02,-4.684850573539733887e-03,-2.346023544669151306e-02,7.845536805689334869e-03,3.166653960943222046e-02,7.049234118312597275e-04,-1.618790440261363983e-02,-2.744792029261589050e-02,-1.152891479432582855e-02
,-1.951152645051479340e-02,2.895087935030460358e-03,-3.484351793304085732e-03,3.012277930974960327e-02,-1.536570303142070770e-02,2.666208660230040550e-03,-3.165604174137115479e-02,5.780043546110391617e-03,2.344102039933204651e-02,-1.198725774884223938e-02
,-2.685308642685413361e-02,-3.000590391457080841e-02,9.550634771585464478e-03,1.593733206391334534e-02,1.094168797135353088e-02,-3.265176340937614441e-02,-3.222147002816200256e-02,1.833864673972129822e-02,1.854943856596946716e-02,1.737717166543006897e-02
,2.714275568723678589e-02,-5.805057007819414139e-03,8.863579481840133667e-03,2.564387582242488861e-02,-3.008970618247985840e-02,-5.002042744308710098e-03,-8.401063270866870880e-03,3.129890561103820801e-02,1.306298561394214630e-02,1.753864577040076256e-03
,1.739352382719516754e-02,8.562940172851085663e-03,6.067711859941482544e-03,2.260509133338928223e-02,2.670437330380082130e-03,2.618877217173576355e-02,-4.803309217095375061e-03,1.076303143054246902e-02,1.744461129419505596e-03,-2.643735334277153015e-02
,2.513485215604305267e-02,9.097364381887018681e-04,3.286220133304595947e-02,-5.654431879520416260e-03,-2.261250652372837067e-02,-1.773341745138168335e-02,1.700678840279579163e-02,-2.951479703187942505e-02,3.890469670295715332e-03,-1.007442595437169075e-03
,6.675555487163364887e-04,-3.206834197044372559e-02,-3.293925151228904724e-02,2.569941990077495575e-02,-4.087385535240173340e-02,-3.740215208381414413e-03,-5.160499829798936844e-03,7.539995945990085602e-03,-1.935018412768840790e-02,-2.339956536889076233e-02
,-1.295087486505508423e-02,2.656518295407295227e-02,-2.265431359410285950e-02,1.996570266783237457e-03,-1.460190210491418839e-02,2.109600603580474854e-02,-2.249817736446857452e-02,3.607623220887035131e-04,-4.903125017881393433e-02,-3.146916395053267479e-03
,-1.187733002007007599e-02,-2.419312298297882080e-02,1.249836012721061707e-02,1.135240774601697922e-02,1.596606336534023285e-02,2.268237993121147156e-02,1.709223841316998005e-03,-8.785918471403419971e-04,-3.304677084088325500e-02,1.372756436467170715e-02
,4.529345408082008362e-02,1.641800254583358765e-02,-1.659003645181655884e-02,-6.748863030225038528e-03,-6.371032446622848511e-02,-2.788432687520980835e-02,2.677034586668014526e-02,-1.160819455981254578e-02,-2.470505423843860626e-02,-2.834989922121167183e-03
,1.739134895615279675e-03,3.223229199647903442e-02,-6.092734634876251221e-03,3.289154544472694397e-02,-3.313113749027252197e-02,3.137987852096557617e-02,3.774964250624179840e-03,-1.387205440551042557e-02,1.558962557464838028e-02,2.803155221045017242e-03
,-1.519609987735748291e-02,2.316844835877418518e-02,1.121357642114162445e-02,-2.979989722371101379e-02,-7.160156499594449997e-03,1.299869734793901443e-02,-1.776241697371006012e-02,2.368260920047760010e-02,2.542277425527572632e-02,-1.581088081002235413e-02
,-2.530322223901748657e-02,-5.793063901364803314e-03,-4.334953613579273224e-03,-1.469914219342172146e-03,1.805241568945348263e-03,-8.372328244149684906e-03,2.348388172686100006e-02,-3.322439268231391907e-02,2.814652957022190094e-02,9.507585316896438599e-03
,6.676419638097286224e-03,-3.117268905043601990e-02,2.567107230424880981e-02,-1.413495559245347977e-02,-2.154526673257350922e-02,-2.837930060923099518e-02,8.389640599489212036e-03,1.011562161147594452e-02,1.082113385200500488e-02,-2.132954820990562439e-02
,3.000545687973499298e-02,1.114881248213350773e-03,-1.042284071445465088e-03,-2.804014831781387329e-03,1.087568420916795731e-02,-2.088469266891479492e-02,-1.681891083717346191e-02,2.933663874864578247e-02,2.472768165171146393e-02,2.022685017436742783e-03
,3.561103483662009239e-03,2.626872248947620392e-02,-1.261322665959596634e-02,2.385248057544231415e-02,2.008357085287570953e-02,1.253790874034166336e-02,-2.674317732453346252e-02,-4.849536344408988953e-03,-2.352858893573284149e-02,1.053309813141822815e-02
,2.811303362250328064e-02,-1.217680610716342926e-02,1.388534530997276306e-02,5.034248158335685730e-02,2.376735955476760864e-02,-2.261587418615818024e-02,-1.660421118140220642e-02,2.706863544881343842e-02,-5.662145838141441345e-02,1.846328563988208771e-02
,4.519789014011621475e-03,-1.117567415349185467e-03,-1.826516166329383850e-02,4.465546831488609314e-02,-9.033736772835254669e-03,-3.493290767073631287e-02,3.105362504720687866e-02,1.071072462946176529e-02,-2.724153362214565277e-02,3.335126861929893494e-02
,-2.665273472666740417e-02,-1.130990451201796532e-03,-4.310857504606246948e-03,2.392352558672428131e-02,2.574442140758037567e-02,1.863838545978069305e-02,-3.398202825337648392e-03,-1.853493601083755493e-02,-2.271099947392940521e-02,-2.202578634023666382e-02
,4.058770835399627686e-03,2.004570700228214264e-02,1.966677233576774597e-02,-1.992662437260150909e-02,-9.808318689465522766e-03,1.903896965086460114e-02,-1.370276790112257004e-02,2.156952768564224243e-02,-1.147989556193351746e-02,-2.307556103914976120e-03
,2.190374024212360382e-02,1.965243928134441376e-02,-1.518493238836526871e-02,-1.552215870469808578e-02,-1.163257844746112823e-02,-1.171564497053623199e-02,2.110407128930091858e-02,1.955091767013072968e-02,-1.793250814080238342e-02,5.456438753753900528e-03
,-1.611065492033958435e-02,1.939663663506507874e-02,1.284670270979404449e-02,3.319386392831802368e-02,-1.108641363680362701e-02,6.515242159366607666e-03,-7.396915461868047714e-03,-9.223515167832374573e-03,2.494899742305278778e-02,8.072756230831146240e-03
,3.088039532303810120e-02,-2.994716353714466095e-02,-3.000004217028617859e-02,1.142501551657915115e-02,1.414034981280565262e-02,2.701229043304920197e-02,-1.678238809108734131e-02,3.070375882089138031e-02,2.820670604705810547e-02,-2.511186525225639343e-02
,6.050062365829944611e-03,1.820263825356960297e-02,2.294219657778739929e-02,-6.107563618570566177e-03,-3.511080518364906311e-02,-2.507161907851696014e-02,1.088645122945308685e-02,8.056108839809894562e-03,-7.981473207473754883e-02,1.685681007802486420e-02
,1.091783400624990463e-02,1.863360777497291565e-02,-1.019689906388521194e-02,-2.445226348936557770e-02,1.633170805871486664e-02,2.014850638806819916e-02,-3.458205237984657288e-02,-3.303405269980430603e-02,6.243942771106958389e-03,2.457018196582794189e-02
,-1.216355990618467331e-02,-9.099818766117095947e-03,-1.794454455375671387e-02,-1.478690374642610550e-02,-3.899386897683143616e-02,1.452577393501996994e-02,-1.925476454198360443e-02,-1.377555634826421738e-02,-1.876391586847603321e-03,6.268477067351341248e-03
,2.748818323016166687e-02,1.751852780580520630e-02,1.694566942751407623e-02,-3.918822854757308960e-03,-1.918587647378444672e-02,1.042641885578632355e-02,2.096395380795001984e-02,1.800424605607986450e-02,1.404460147023200989e-02,-1.909514702856540680e-02
,3.335426002740859985e-02,-1.315840170718729496e-03,1.148645952343940735e-02,1.163865625858306885e-02,5.149283912032842636e-03,-6.527666002511978149e-03,-1.448065135627985001e-02,1.026279106736183167e-02,-1.877426728606224060e-02,-2.117087319493293762e-02
,1.565660536289215088e-02,1.275923196226358414e-02,-6.232451181858778000e-03,1.084205321967601776e-02,8.408473804593086243e-03,-1.662090234458446503e-02,2.472063526511192322e-02,-6.745290942490100861e-03,-1.192211359739303589e-02,6.693454924970865250e-04
,-1.919263415038585663e-02,8.913475088775157928e-03,-1.049485430121421814e-02,4.834701120853424072e-02,-2.199260983616113663e-03,-2.634356915950775146e-02,-2.529153972864151001e-02,-2.969071641564369202e-02,-1.706943660974502563e-02,-2.489691600203514099e-02
,5.782230198383331299e-02,-7.484142668545246124e-03,2.081264555454254150e-02,4.397350177168846130e-02,-1.910289190709590912e-02,-4.686410352587699890e-02,2.423218451440334320e-02,2.067765593528747559e-02,-8.271516859531402588e-02,3.388597862794995308e-03
,1.363981794565916061e-02,2.937015332281589508e-02,-1.083499193191528320e-02,-2.296274062246084213e-03,-8.706607855856418610e-03,7.087228819727897644e-03,1.638762094080448151e-02,2.751902118325233459e-02,-4.131647292524576187e-04,1.871109567582607269e-02
,1.609035022556781769e-02,-3.209821507334709167e-02,1.829405874013900757e-02,-3.131913766264915466e-02,-2.330228500068187714e-02,-1.461122743785381317e-02,-3.480590647086501122e-03,1.394141279160976410e-02,-4.006707668304443359e-02,-6.113531999289989471e-04
,-9.014208917506039143e-04,-3.369268774986267090e-02,-7.970997248776257038e-04,5.355497822165489197e-03,-2.293955534696578979e-02,-2.438310347497463226e-02,-1.343023963272571564e-02,-2.522810176014900208e-02,-1.635939348489046097e-03,3.668585047125816345e-02
,2.455469965934753418e-02,6.442561279982328415e-03,1.567694544792175293e-02,1.887132413685321808e-02,-2.026196196675300598e-02,2.217996865510940552e-02,-2.962369285523891449e-02,-1.938267052173614502e-02,7.474720478057861328e-04,-3.585856407880783081e-03
,6.667466368526220322e-03,5.945192649960517883e-03,2.441606670618057251e-02,-5.905954632908105850e-03,-1.482364628463983536e-02,2.130973152816295624e-03,3.029613196849822998e-02,-1.306666526943445206e-02,-6.299042701721191406e-02,1.764264144003391266e-02
,-2.584562450647354126e-02,1.406855508685112000e-02,-9.880879893898963928e-03,1.647062785923480988e-02,4.544267430901527405e-02,-4.049938172101974487e-02,3.064459748566150665e-02,-2.824129723012447357e-02,5.188007373362779617e-03,2.758160990197211504e-04
,7.438667118549346924e-03,-1.316708978265523911e-02,4.973009345121681690e-04,-9.822828695178031921e-03,3.504345891997218132e-03,1.890894025564193726e-02,-3.882665559649467468e-02,2.071922272443771362e-02,8.695975877344608307e-03,1.366966590285301208e-02
,3.567292541265487671e-02,-2.630525454878807068e-02,2.663414925336837769e-02,1.928581856191158295e-02,-2.018507197499275208e-02,1.634210720658302307e-02,3.876844793558120728e-02,-6.351826712489128113e-03,-7.960569858551025391e-02,5.600731074810028076e-02
,9.523616172373294830e-04,-2.376556955277919769e-02,-2.539858594536781311e-02,1.118380762636661530e-02,2.218467928469181061e-02,2.113102748990058899e-02,2.086058817803859711e-02,3.329005092382431030e-02,3.648258862085640430e-04,-7.676909677684307098e-03
,-2.404286712408065796e-02,-2.421110309660434723e-02,1.804981380701065063e-02,3.538493812084197998e-02,-9.031953290104866028e-03,2.895809896290302277e-02,3.473325446248054504e-02,-2.964196912944316864e-02,8.310259319841861725e-03,-2.717472054064273834e-02
,2.694596722722053528e-02,-3.179248794913291931e-02,2.054604329168796539e-02,-1.129372161813080311e-03,1.855034939944744110e-02,-1.321111526340246201e-02,-2.335694991052150726e-02,2.609063312411308289e-02,-6.053029745817184448e-02,8.384820073843002319e-02
,1.472967211157083511e-02,-6.979136727750301361e-03,2.307986840605735779e-02,-1.113191805779933929e-02,-4.752595908939838409e-03,-2.172055467963218689e-02,1.664556330069899559e-03,1.704091671854257584e-03,3.975228872150182724e-03,-4.471296851988881826e-04
,8.681834675371646881e-03,2.957676723599433899e-02,8.843211457133293152e-03,1.674254983663558960e-02,-3.025705367326736450e-02,-1.078928913921117783e-02,1.705284230411052704e-02,-7.228496950119733810e-03,1.174598466604948044e-03,1.205201074481010437e-02
,2.682757191359996796e-02,-3.580211475491523743e-02,-1.487664878368377686e-02,-1.442014612257480621e-02,2.691526897251605988e-02,-8.757107891142368317e-03,2.529986761510372162e-02,-9.520499035716056824e-03,1.209138333797454834e-02,4.286055266857147217e-02
,-3.067000210285186768e-02,1.321872416883707047e-02,-6.099443882703781128e-03,1.210481300950050354e-02,-2.414471656084060669e-02,1.687115430831909180e-02,-3.086727485060691833e-02,3.105204366147518158e-02,-1.160714123398065567e-02,-6.477208808064460754e-03
,-1.892635412514209747e-02,-1.495359465479850769e-02,4.543635994195938110e-03,-1.576744019985198975e-02,-4.924770444631576538e-03,9.044215083122253418e-03,1.251758821308612823e-02,6.743781268596649170e-03,3.192612156271934509e-02,-9.908033534884452820e-03
,2.696719579398632050e-02,-1.580386655405163765e-03,-3.259881585836410522e-02,3.434792160987854004e-04,-4.683792125433683395e-03,-3.244863823056221008e-02,4.272023681551218033e-03,-1.562410593032836914e-02,-5.765001103281974792e-02,-1.247074734419584274e-02
,7.955973036587238312e-03,2.031001262366771698e-02,-1.978608965873718262e-02,1.826293021440505981e-02,-4.414692521095275879e-03,-2.633344009518623352e-02,5.730180814862251282e-02,1.604614034295082092e-02,-8.409081026911735535e-03,-3.002160787582397461e-02
,3.382892534136772156e-02,-4.281031340360641479e-02,2.497688680887222290e-02,6.747034192085266113e-02,5.076333135366439819e-02,-3.249893337488174438e-02,2.819375880062580109e-02,1.851731166243553162e-02,-2.010438777506351471e-02,-2.501926198601722717e-02
,-2.217767527326941490e-03,4.771926905959844589e-03,-2.439292520284652710e-02,2.113342843949794769e-02,2.404950000345706940e-02,2.952781319618225098e-02,2.096332982182502747e-02,-1.201141625642776489e-02,1.272440701723098755e-02,1.741277799010276794e-02
,-1.726114749908447266e-02,1.048344559967517853e-02,-4.135273396968841553e-03,3.044717758893966675e-02,6.789376959204673767e-03,-1.595211587846279144e-02,-2.929952181875705719e-02,-2.519538812339305878e-02,-3.971027582883834839e-02,1.135540287941694260e-02
,4.542953893542289734e-02,-2.925013564527034760e-02,-1.075916457921266556e-02,3.182507678866386414e-02,-2.845265157520771027e-02,-1.090875454246997833e-02,3.033969365060329437e-02,-1.636867225170135498e-02,-1.206087414175271988e-02,-3.196401521563529968e-02
,-1.041146181523799896e-02,2.613762393593788147e-02,-1.688199676573276520e-02,-3.306278027594089508e-03,2.438671700656414032e-02,3.211055323481559753e-02,-3.622804582118988037e-02,9.122860617935657501e-03,-3.728316863998770714e-03,-1.385936699807643890e-02
,1.614517159759998322e-02,-6.716308183968067169e-03,2.971752732992172241e-02,4.236772656440734863e-03,-3.265906870365142822e-02,2.109234454110264778e-03,-2.976024895906448364e-02,-8.426863700151443481e-03,2.044154144823551178e-02,-2.797299530357122421e-03
,3.069817274808883667e-02,-2.075776271522045135e-02,1.664352789521217346e-02,1.448683347553014755e-02,7.141481619328260422e-03,-1.433392707258462906e-02,3.593573719263076782e-02,1.933459006249904633e-02,-4.965690150856971741e-02,7.981918752193450928e-02
,-9.302689693868160248e-03,1.135360728949308395e-02,1.339581888169050217e-02,1.533931866288185120e-02,2.811720035970211029e-02,2.970795147120952606e-02,3.004932589828968048e-02,-2.267258986830711365e-02,-4.185180738568305969e-02,2.639544382691383362e-02
,-5.287928506731987000e-03,-1.378852315247058868e-02,-1.173177547752857208e-02,7.257434539496898651e-03,2.634578943252563477e-02,-2.724450826644897461e-02,1.197895314544439316e-02,2.302984707057476044e-02,-1.869911141693592072e-02,-2.062260359525680542e-02
,-2.970347926020622253e-02,4.219861235469579697e-03,-4.200223833322525024e-03,1.309248246252536774e-02,8.768667466938495636e-03,4.689630120992660522e-03,2.584358491003513336e-02,8.633785881102085114e-03,-6.154528353363275528e-03,2.079064399003982544e-02
,-2.888353541493415833e-03,5.625524208880960941e-04,-2.648536302149295807e-02,-1.715223863720893860e-02,-1.390540972352027893e-02,-2.390944026410579681e-02,-1.272563636302947998e-02,4.239632748067378998e-03,-2.230835845693945885e-03,-8.652407675981521606e-03
,2.522161789238452911e-02,-2.118560485541820526e-02,2.423373237252235413e-02,-1.184662710875272751e-02,-2.942965179681777954e-02,-3.333332762122154236e-02,-1.766989938914775848e-02,-2.134990412741899490e-03,-4.872103407979011536e-02,-1.284655276685953140e-02
,4.917212645523250103e-04,-1.819851994514465332e-02,-9.521387517452239990e-03,2.433474920690059662e-02,-1.260356139391660690e-02,-4.057673737406730652e-02,1.697704195976257324e-02,1.929494924843311310e-02,-6.481754034757614136e-02,3.563643433153629303e-03
,-2.701999992132186890e-02,2.269121818244457245e-03,-4.101069644093513489e-03,5.555364489555358887e-02,2.873609587550163269e-02,-4.400452971458435059e-02,4.981107637286186218e-02,2.323207817971706390e-02,-5.448404699563980103e-02,-7.015277165919542313e-03
,-3.783703548833727837e-03,2.161602117121219635e-02,2.475485205650329590e-03,3.324428200721740723e-02,2.019664272665977478e-02,-1.882228069007396698e-02,2.552684210240840912e-02,-1.752205938100814819e-02,-3.803673759102821350e-02,1.626867987215518951e-02
,4.090916737914085388e-02,-1.303996238857507706e-02,1.224512234330177307e-02,4.749162867665290833e-02,3.285154700279235840e-02,-2.925979904830455780e-02,7.501478830818086863e-05,-9.700708091259002686e-03,1.660248450934886932e-02,-2.136678993701934814e-02
,-9.840856306254863739e-03,2.178899012506008148e-02,-2.069590846076607704e-03,1.495181489735841751e-02,-1.244211103767156601e-02,-1.630166918039321899e-02,4.443322308361530304e-03,-1.612196862697601318e-02,-1.947370544075965881e-02,4.640441015362739563e-02
,2.525469474494457245e-02,-1.269857492297887802e-02,2.720018848776817322e-02,1.570175588130950928e-02,1.377835869789123535e-02,-3.182396292686462402e-02,1.208792906254529953e-02,2.787633240222930908e-02,-2.594757080078125000e-02,8.502201177179813385e-03
,4.005876183509826660e-02,2.057010121643543243e-02,-2.208817750215530396e-02,4.165174439549446106e-02,-1.690884493291378021e-02,-2.716634422540664673e-02,4.970891773700714111e-02,-1.627803593873977661e-02,-3.842011839151382446e-02,-2.306313021108508110e-03
,-1.808954053558409214e-03,-4.741842392832040787e-03,-5.383230745792388916e-04,5.965324118733406067e-02,4.714389890432357788e-02,-2.231214568018913269e-02,-1.260887086391448975e-02,1.725040934979915619e-02,-2.509310655295848846e-02,-4.358253255486488342e-02
,3.907823935151100159e-02,-4.156313836574554443e-03,1.117543037980794907e-02,-1.905657351016998291e-02,-4.841347690671682358e-03,2.425358630716800690e-02,1.923726871609687805e-02,-2.819262258708477020e-02,3.160574706271290779e-03,1.057373452931642532e-02
,-8.014014922082424164e-03,-4.729824606329202652e-03,-2.207536064088344574e-02,1.446813344955444336e-03,6.135481875389814377e-03,-4.217315465211868286e-02,-1.753347023623064160e-04,4.811406601220369339e-03,-4.713331349194049835e-03,1.552888937294483185e-02
,4.487058147788047791e-02,-9.807820431888103485e-03,-1.888863369822502136e-02,1.347960717976093292e-02,3.052152879536151886e-02,-1.474013924598693848e-02,1.776425540447235107e-02,3.887677565217018127e-03,-3.202095627784729004e-02,1.533877942711114883e-02
,-2.519497461616992950e-02,-2.108639664947986603e-02,-4.914317280054092407e-03,1.479962281882762909e-02,-1.339286752045154572e-02,-2.024756185710430145e-02,-7.507030852138996124e-03,2.959533780813217163e-02,-3.836978971958160400e-02,9.889849461615085602e-03
,3.722733631730079651e-02,-4.790619015693664551e-03,-2.206600829958915710e-02,4.139231517910957336e-02,1.174389384686946869e-02,-7.251536846160888672e-02,2.876135893166065216e-02,-1.139410585165023804e-02,-4.439418390393257141e-02,4.201281070709228516e-02
,1.611321233212947845e-02,-2.895281463861465454e-02,-7.073394954204559326e-03,-2.743688412010669708e-02,1.836401782929897308e-02,-3.997782990336418152e-02,2.788698486983776093e-02,8.185597136616706848e-03,-1.105089322663843632e-03,2.593917399644851685e-02
,9.135636501014232635e-03,2.217602916061878204e-02,1.433242298662662506e-02,-2.025212906301021576e-02,-6.787143647670745850e-03,-2.716996148228645325e-02,2.050551399588584900e-02,-6.873326841741800308e-03,-1.189347356557846069e-02,3.020157106220722198e-02
,3.967723250389099121e-02,-2.284407801926136017e-02,-3.093387372791767120e-02,-3.159914538264274597e-02,2.573815174400806427e-02,-2.226950787007808685e-02,1.894015260040760040e-02,3.215678408741950989e-02,-1.155717577785253525e-02,3.855304047465324402e-02
,-2.136178873479366302e-02,1.600138959474861622e-03,-2.916965633630752563e-03,1.661663874983787537e-02,1.701411232352256775e-02,2.672184631228446960e-02,2.226546034216880798e-02,3.325809165835380554e-02,-1.791955530643463135e-02,-1.432416494935750961e-03
,2.260913373902440071e-03,1.120632700622081757e-02,-3.051586076617240906e-02,1.627704314887523651e-02,7.772041135467588902e-04,2.659525349736213684e-02,2.199359610676765442e-02,-1.116620376706123352e-02,-2.411912893876433372e-03,-1.738728955388069153e-02
,-2.268655225634574890e-02,1.199895702302455902e-02,-2.380504645407199860e-02,-9.473607875406742096e-03,3.296196833252906799e-02,-1.995036005973815918e-02,5.222281068563461304e-02,-2.293389290571212769e-02,-9.454324841499328613e-03,-2.541601471602916718e-02
,-1.346939895302057266e-02,4.447627812623977661e-03,-2.369608171284198761e-02,1.849469169974327087e-02,1.067832112312316895e-03,2.644525468349456787e-02,1.448938809335231781e-02,3.298849239945411682e-02,-3.753630910068750381e-03,2.026159502565860748e-02
,-1.971195824444293976e-02,-3.015032224357128143e-02,1.428062468767166138e-02,8.070494979619979858e-02,-4.659940674901008606e-02,-7.088554650545120239e-02,1.722444593906402588e-02,2.247262559831142426e-02,4.832865670323371887e-02,-1.560444384813308716e-02
,4.876642953604459763e-03,2.208949625492095947e-02,-9.775942191481590271e-03,1.943461829796433449e-03,2.130595967173576355e-02,-5.570012726821005344e-04,3.305439138785004616e-03,-1.459964737296104431e-02,2.367527410387992859e-02,7.959761656820774078e-03
,3.603896871209144592e-02,1.491107326000928879e-02,-3.190133720636367798e-03,4.081133753061294556e-02,-1.422855164855718613e-02,-4.526641592383384705e-02,-1.877498626708984375e-02,-2.594774775207042694e-02,4.561786074191331863e-03,2.825473900884389877e-03
,1.277028769254684448e-02,2.709585987031459808e-02,-2.158107236027717590e-02,2.823070622980594635e-02,1.647680252790451050e-02,4.764197394251823425e-03,-1.868944987654685974e-02,1.115648448467254639e-02,-2.131683193147182465e-02,7.026161532849073410e-03
,-2.674965560436248779e-02,2.351745776832103729e-02,-3.070406988263130188e-02,2.924947813153266907e-02,1.624627038836479187e-02,2.811565436422824860e-02,-4.009440913796424866e-02,1.268598809838294983e-02,2.224965766072273254e-02,-1.516690291464328766e-02
,2.759983949363231659e-02,1.506755501031875610e-02,1.753341034054756165e-02,-2.438056096434593201e-02,2.067399211227893829e-02,3.407736774533987045e-03,1.495608035475015640e-02,2.169620804488658905e-02,-9.708155877888202667e-03,2.291815914213657379e-02
,4.064093157649040222e-02,-2.084762044250965118e-02,2.915831655263900757e-02,1.412033848464488983e-02,-2.672675997018814087e-02,-3.021098673343658447e-02,1.239654328674077988e-02,1.135418377816677094e-02,3.663046285510063171e-03,2.720851637423038483e-02
,-1.189342979341745377e-02,-2.995346672832965851e-02,-2.159322425723075867e-02,-1.759650185704231262e-02,1.964640058577060699e-02,-2.254614047706127167e-02,2.331051416695117950e-02,2.345166914165019989e-02,4.668269772082567215e-03,2.508226409554481506e-02
,2.497757412493228912e-02,2.082294039428234100e-02,-2.250187098979949951e-02,5.084308236837387085e-02,7.212687283754348755e-03,-2.711105160415172577e-03,9.761865250766277313e-03,-2.179983444511890411e-02,-3.867991268634796143e-02,1.642685756087303162e-02
,1.187604106962680817e-02,-1.169377658516168594e-02,1.984146423637866974e-02,2.168317139148712158e-02,-5.613106768578290939e-03,3.253247961401939392e-02,2.670129574835300446e-02,2.460765885189175606e-03,-1.943841390311717987e-02,-1.631142944097518921e-02
,-1.937062013894319534e-03,-2.780392020940780640e-02,3.167082741856575012e-02,-2.829550206661224365e-02,2.805764088407158852e-03,3.171644359827041626e-02,-6.288460455834865570e-03,2.782173454761505127e-02,-2.711943350732326508e-02,3.378343954682350159e-02
,-3.654902800917625427e-02,5.730909761041402817e-03,2.022059401497244835e-03,3.779627755284309387e-02,2.159345708787441254e-02,-2.462979406118392944e-02,2.201098389923572540e-02,-1.869042031466960907e-02,-8.230517618358135223e-03,-3.635597601532936096e-02
,2.440062910318374634e-02,-8.789250627160072327e-03,8.306186646223068237e-03,1.181347947567701340e-02,-4.391300678253173828e-02,-9.038239717483520508e-03,2.105307579040527344e-02,-2.915263921022415161e-02,-6.821364164352416992e-02,-6.736867129802703857e-03
,2.094302326440811157e-02,-4.051426053047180176e-02,-2.213858254253864288e-02,2.688576467335224152e-02,9.834221750497817993e-02,-8.638627082109451294e-02,4.514877125620841980e-02,1.774062775075435638e-02,-1.863219588994979858e-02,-1.128898654133081436e-02
,-9.945956058800220490e-03,7.350088097155094147e-03,-1.882499083876609802e-02,2.454219572246074677e-02,-1.213431730866432190e-02,1.192350685596466064e-02,3.166956081986427307e-02,-2.276968397200107574e-02,3.017627168446779251e-03,1.678060158155858517e-03
,-2.565095759928226471e-02,1.976653933525085449e-02,-1.150529459118843079e-02,2.697250433266162872e-02,-9.427188197150826454e-04,-5.347154662013053894e-02,-8.436073549091815948e-03,5.742587149143218994e-03,-1.142370328307151794e-02,-1.285496819764375687e-02
,6.586400326341390610e-03,-1.813892088830471039e-02,-2.691404521465301514e-02,-2.142565324902534485e-02,2.973884344100952148e-02,3.102704882621765137e-02,-3.597824648022651672e-02,1.424019318073987961e-02,-2.869021333754062653e-02,9.394438005983829498e-03
,3.078758716583251953e-02,-3.434702008962631226e-02,-1.746904104948043823e-03,2.552215196192264557e-02,-1.213526912033557892e-02,1.948961988091468811e-02,2.652826905250549316e-02,3.034740500152111053e-02,1.143511268310248852e-03,5.216740537434816360e-03
,-1.134767569601535797e-02,-1.946544088423252106e-02,-2.291090786457061768e-02,2.681576088070869446e-02,-2.790316008031368256e-03,-8.901341818273067474e-03,1.344972569495439529e-02,3.543341159820556641e-02,-1.781980879604816437e-02,1.520215254276990891e-02
,-4.528416693210601807e-02,-2.279928140342235565e-02,8.836131542921066284e-03,5.440404266119003296e-02,-2.090174891054630280e-02,3.291322663426399231e-02,2.557302592322230339e-03,2.974281320348381996e-03,-4.688316024839878082e-03,-1.829778775572776794e-02
,-2.996572991833090782e-03,9.501184336841106415e-03,2.449642680585384369e-02,-7.134370389394462109e-04,8.461314253509044647e-03,-8.450143970549106598e-03,3.261702880263328552e-02,2.493016608059406281e-02,1.676922664046287537e-02,3.656105138361454010e-03
,1.207444351166486740e-02,-1.116849016398191452e-03,3.281959146261215210e-02,9.593675844371318817e-03,1.028843410313129425e-02,-6.659913063049316406e-02,1.245205989107489586e-03,2.430984191596508026e-02,-8.906523697078227997e-03,-2.709326520562171936e-02
,-1.075892150402069092e-02,2.909144014120101929e-02,-2.826208062469959259e-02,2.625053003430366516e-02,9.622422978281974792e-03,1.607544487342238426e-03,2.489025518298149109e-02,-2.936767414212226868e-02,1.689009554684162140e-02,-2.358036115765571594e-02
,-1.199966762214899063e-02,1.758961006999015808e-02,-2.617156133055686951e-02,1.721581793390214443e-03,-2.126286737620830536e-02,-4.723232705146074295e-03,3.489530086517333984e-02,-2.118606865406036377e-02,1.699649542570114136e-02,-1.351945381611585617e-02
,2.643930166959762573e-02,-4.646315798163414001e-02,2.598334336653351784e-03,7.865130901336669922e-02,1.235107053071260452e-02,1.015634089708328247e-02,-2.582184597849845886e-02,2.141919732093811035e-02,-5.833947658538818359e-02,2.577771246433258057e-02
,1.202782616019248962e-02,2.179143019020557404e-02,1.995638012886047363e-02,3.772686421871185303e-02,-7.130123209208250046e-03,-1.121564768254756927e-02,-1.855180785059928894e-02,-2.870241180062294006e-02,-1.437072549015283585e-02,4.150602966547012329e-03
,1.716324500739574432e-02,8.055040612816810608e-03,2.284961566329002380e-02,3.761077672243118286e-02,-5.210900213569402695e-03,-2.824227325618267059e-02,3.010212816298007965e-02,-2.617097273468971252e-02,-1.332354266196489334e-02,1.300852466374635696e-02
,2.459463663399219513e-02,-3.186621144413948059e-02,-2.961999922990798950e-02,2.877316623926162720e-02,1.854931376874446869e-02,-2.814798057079315186e-02,-2.726521529257297516e-02,5.343332421034574509e-03,-3.488476201891899109e-02,-2.124427072703838348e-02
,-3.377633765921927989e-05,8.608534000813961029e-03,2.573301270604133606e-02,-2.823306061327457428e-02,-1.348386704921722412e-02,-2.244661375880241394e-02,2.062173560261726379e-02,1.862853951752185822e-02,1.089418772608041763e-02,-3.154745697975158691e-02
,2.616538852453231812e-02,-6.540508940815925598e-03,3.173270821571350098e-02,1.009136717766523361e-02,2.790354564785957336e-02,-1.048006676137447357e-02,-2.641735039651393890e-02,-3.217536583542823792e-02,3.038310445845127106e-02,1.051050890237092972e-02
,7.566658314317464828e-03,4.879173357039690018e-03,-2.270461246371269226e-02,3.734435141086578369e-02,-9.836758486926555634e-03,4.645505174994468689e-02,1.617304421961307526e-02,3.159520030021667480e-02,-2.681153081357479095e-02,4.004569724202156067e-02
,4.975795000791549683e-02,-3.881244733929634094e-02,-1.417966932058334351e-02,3.749109804630279541e-02,-5.383818969130516052e-02,-1.255294401198625565e-02,1.877883914858102798e-03,8.117894642055034637e-03,-5.202435888350009918e-03,2.841721847653388977e-02
,-3.871751576662063599e-02,-2.038020268082618713e-02,3.192659467458724976e-03,4.459438472986221313e-02,-3.141076862812042236e-02,3.745659813284873962e-02,3.103017993271350861e-02,7.354216184467077255e-03,-9.090598672628402710e-02,2.434490807354450226e-02
,2.358708716928958893e-02,-1.983611844480037689e-02,9.107951074838638306e-03,2.885285578668117523e-02,-1.982314325869083405e-02,1.645108335651457310e-03,-1.891607046127319336e-02,-8.599409484304487705e-04,-3.372748568654060364e-02,-5.558964330703020096e-04
,-5.124907940626144409e-03,1.057866215705871582e-02,-6.014645099639892578e-03,-1.075450680218636990e-03,-4.630244895815849304e-02,9.818146936595439911e-03,2.308499254286289215e-02,2.681507356464862823e-02,-6.974188983440399170e-02,2.801947528496384621e-03
,4.222464561462402344e-02,-2.231067605316638947e-02,-2.024349197745323181e-02,-1.078538596630096436e-02,-2.023695036768913269e-02,-1.188701600767672062e-03,3.685044497251510620e-02,1.848740316927433014e-02,-2.857611514627933502e-02,1.938342303037643433e-02
,3.389327228069305420e-02,-1.325838360935449600e-02,-5.244959029369056225e-04,-2.541700005531311035e-02,-2.591632865369319916e-02,-1.357394643127918243e-02,-2.822315506637096405e-02,1.238087750971317291e-02,1.142817549407482147e-03,5.765570327639579773e-03
,2.804491482675075531e-02,-2.921162173151969910e-02,-1.885025948286056519e-02,2.619098313152790070e-02,6.350417155772447586e-03,-1.534711755812168121e-02,-2.246405929327011108e-02,1.003295183181762695e-02,2.696897427085787058e-04,6.697787437587976456e-03
,9.110798686742782593e-02,-5.543761327862739563e-02,-9.952781721949577332e-03,5.440606549382209778e-02,3.948808088898658752e-02,-8.609303832054138184e-02,-9.380018338561058044e-03,3.955155238509178162e-02,-7.491993904113769531e-02,1.415720954537391663e-02
,1.597225083969533443e-03,-2.335574245080351830e-03,2.624409645795822144e-02,-1.553234830498695374e-02,5.502862040884792805e-04,3.367913514375686646e-02,3.774882759898900986e-03,1.444506738334894180e-02,-2.363051846623420715e-02,-9.666907601058483124e-03
,-1.547353994101285934e-02,-1.451830379664897919e-02,9.136382490396499634e-03,5.156541988253593445e-02,2.195963868871331215e-03,1.637072488665580750e-02,6.110890954732894897e-02,1.796625321730971336e-03,-1.022163685411214828e-02,-8.590509183704853058e-03
,2.757859230041503906e-02,-2.105091884732246399e-02,3.198160231113433838e-02,-1.780141144990921021e-02,2.548628114163875580e-02,1.019994076341390610e-02,-1.035133376717567444e-02,2.759191952645778656e-02,9.760894812643527985e-03,2.355614304542541504e-02
,2.923280559480190277e-02,5.737145897001028061e-03,-4.384530242532491684e-03,7.520584855228662491e-03,1.987676694989204407e-02,-3.017986565828323364e-02,-1.901833340525627136e-02,-1.082337368279695511e-02,-8.398599922657012939e-03,-2.989564090967178345e-02
,2.529918448999524117e-03,-1.702725514769554138e-02,1.615776866674423218e-02,7.594639062881469727e-02,-5.071320757269859314e-02,4.080414772033691406e-03,-2.323648426681756973e-03,2.600556425750255585e-02,5.610677879303693771e-03,2.131599746644496918e-02
,3.741924092173576355e-02,2.499378658831119537e-02,1.194183155894279480e-02,7.938630133867263794e-02,-3.955062106251716614e-02,1.606943085789680481e-02,3.300143405795097351e-02,-6.953597068786621094e-03,-3.916032612323760986e-02,4.561518877744674683e-02
,5.262372270226478577e-02,-4.178938269615173340e-02,-1.833553053438663483e-02,6.161161139607429504e-02,5.935028940439224243e-02,-2.175770327448844910e-02,3.111190907657146454e-02,2.595560997724533081e-02,-4.744239524006843567e-02,-1.276297215372323990e-02
,1.939276047050952911e-02,7.619528565555810928e-03,-1.429954916238784790e-02,6.504518538713455200e-02,-1.043828087858855724e-03,1.140345912426710129e-02,-3.133739810436964035e-03,-3.080325201153755188e-02,-2.242878079414367676e-02,5.453150719404220581e-03
,-1.673022843897342682e-02,2.569952234625816345e-02,-2.613792195916175842e-02,2.027631737291812897e-02,-2.373525686562061310e-02,1.707524992525577545e-03,2.045861072838306427e-02,-2.030936814844608307e-02,4.369558393955230713e-02,-2.115493826568126678e-02
,9.852424263954162598e-04,1.475327461957931519e-02,-1.815374381840229034e-02,2.842544205486774445e-02,2.838724665343761444e-02,1.381762325763702393e-02,-1.528300903737545013e-02,-2.080916240811347961e-02,-3.643175121396780014e-03,2.869015093892812729e-03
,2.997312508523464203e-02,-1.309174858033657074e-02,2.156368643045425415e-02,3.351794555783271790e-02,-7.303691469132900238e-03,2.567977644503116608e-02,6.444739643484354019e-03,-3.745404770597815514e-03,-1.044265553355216980e-02,8.799612405709922314e-04
,8.445420302450656891e-03,2.832517959177494049e-02,-1.589469611644744873e-04,-8.873548358678817749e-03,-2.841074392199516296e-02,2.911051362752914429e-02,-3.787948191165924072e-02,-6.257549393922090530e-03,-4.799450747668743134e-03,2.265476994216442108e-02
,3.940489515662193298e-02,2.146575413644313812e-02,-1.133242622017860413e-02,6.318968534469604492e-02,-1.824716292321681976e-02,9.994891472160816193e-03,-2.164969220757484436e-02,3.064183145761489868e-02,-4.126648232340812683e-02,2.758881077170372009e-02
,2.529563568532466888e-02,7.593647576868534088e-03,2.426815591752529144e-02,4.936427623033523560e-02,-3.372593596577644348e-02,2.866569673642516136e-03,-4.664575681090354919e-02,1.689399033784866333e-02,1.024928689002990723e-02,2.755025587975978851e-02
,7.268275320529937744e-02,-4.076481983065605164e-02,-2.517466247081756592e-02,1.066888961941003799e-02,7.175330072641372681e-02,-2.434018999338150024e-02,-2.428006567060947418e-02,4.991798102855682373e-02,-3.655316308140754700e-02,-2.953249961137771606e-02
,9.451971389353275299e-03,2.538103377446532249e-03,-1.369006186723709106e-02,2.824935130774974823e-02,1.199099887162446976e-02,-1.147286221385002136e-02,-3.335492801852524281e-04,1.047552842646837234e-02,2.081485278904438019e-02,-7.078308262862265110e-04
,7.497204001992940903e-03,9.798127226531505585e-03,1.362324506044387817e-02,-1.212991774082183838e-02,-8.460333570837974548e-03,2.293152501806616783e-03,3.467063885182142258e-03,-2.280478179454803467e-02,-5.158970504999160767e-02,2.465632185339927673e-02
,3.036201000213623047e-02,-2.363191172480583191e-02,5.743497516959905624e-03,-6.131703499704599380e-03,1.658523827791213989e-02,-4.593713954091072083e-02,5.328083783388137817e-02,-3.386236960068345070e-03,-3.576293215155601501e-02,7.005491852760314941e-02
,8.406641893088817596e-03,3.294042125344276428e-02,-1.198261976242065430e-03,2.804383449256420135e-02,7.126390468329191208e-03,2.530003525316715240e-02,2.815098688006401062e-02,1.313344854861497879e-02,-3.482144325971603394e-02,-8.501026779413223267e-03
,-2.592359902337193489e-03,-3.615461988374590874e-03,1.885620877146720886e-02,1.604646630585193634e-02,2.115337178111076355e-02,6.615015212446451187e-03,-8.589709177613258362e-03,-2.926490642130374908e-02,-1.442426908761262894e-02,1.673236675560474396e-02
,1.312875002622604370e-02,8.758967742323875427e-03,7.564646191895008087e-03,-1.764262095093727112e-02,2.829051204025745392e-02,-2.682253159582614899e-02,2.605769969522953033e-02,-2.198321186006069183e-02,-3.261066274717450142e-03,4.450964555144309998e-02
,-6.771246436983346939e-03,-1.278031151741743088e-02,1.626458019018173218e-02,-1.575913466513156891e-02,1.960955560207366943e-02,-2.180704288184642792e-02,5.243351217359304428e-03,1.876439712941646576e-02,2.541812881827354431e-02,1.315505057573318481e-02
,-1.834777183830738068e-02,2.390821697190403938e-03,-4.394615069031715393e-03,1.585590466856956482e-02,2.794210240244865417e-02,-2.221413329243659973e-02,-1.924875378608703613e-02,-1.745050586760044098e-02,1.119814720004796982e-02,-4.849910736083984375e-03
,4.850604757666587830e-02,1.425752416253089905e-02,-1.358718331903219223e-02,-4.078619927167892456e-02,-2.836013154592365026e-04,1.295547932386398315e-02,-4.503000993281602859e-03,3.083249367773532867e-02,3.030442632734775543e-03,2.140050753951072693e-02
,-2.705997088924050331e-03,8.375984616577625275e-03,-1.794587634503841400e-02,1.749512366950511932e-02,5.226265173405408859e-03,-6.339176744222640991e-02,1.669730991125106812e-02,-7.046532817184925079e-03,8.324189693666994572e-04,4.571826756000518799e-02
,5.287166312336921692e-02,-4.092428088188171387e-02,3.247678279876708984e-02,5.021385848522186279e-02,-5.927220359444618225e-02,-4.797181859612464905e-02,3.920087590813636780e-02,2.326772734522819519e-02,-1.204769536852836609e-01,2.424233034253120422e-02
,4.392582457512617111e-03,-4.903143737465143204e-03,8.708909153938293457e-03,3.118781372904777527e-02,1.843313686549663544e-02,3.189787641167640686e-02,1.125162001699209213e-02,-2.046040492132306099e-03,1.025255955755710602e-02,-1.664913631975650787e-02
,5.502345785498619080e-02,-1.232585497200489044e-02,4.343654960393905640e-03,-2.070376649498939514e-02,-1.395305152982473373e-02,-5.054282397031784058e-02,1.881912909448146820e-02,1.011700090020895004e-02,-2.465965598821640015e-02,4.091677814722061157e-02
,-1.046320889145135880e-02,-1.014438457787036896e-02,7.803490385413169861e-03,-8.713476359844207764e-03,-9.317470714449882507e-03,-1.174894720315933228e-02,-2.401187270879745483e-02,2.418058924376964569e-02,-1.036821119487285614e-02,2.904461696743965149e-02
,9.537613019347190857e-03,-8.329764008522033691e-03,4.100173246115446091e-03,-2.060960792005062103e-02,5.949346348643302917e-03,1.656156405806541443e-02,-1.745670102536678314e-02,2.188481856137514114e-03,-9.027365595102310181e-03,3.383021801710128784e-02
,-2.532801032066345215e-02,2.058639749884605408e-02,1.964880153536796570e-02,5.670681130141019821e-03,2.793842554092407227e-02,1.426206436008214951e-02,2.713088504970073700e-02,-4.004620714113116264e-04,-4.410292208194732666e-02,-1.679388061165809631e-02
,1.058547422289848328e-01,2.195118367671966553e-02,-3.152143210172653198e-03,-4.505771398544311523e-02,5.744629353284835815e-02,-1.123255342245101929e-01,5.491208285093307495e-04,1.967474259436130524e-02,1.970841363072395325e-02,-1.280870195478200912e-02
,-1.597376540303230286e-02,-2.876051329076290131e-02,1.670018583536148071e-02,-1.436584442853927612e-02,-1.802156306803226471e-02,-3.436996415257453918e-02,5.343638826161623001e-03,3.100350871682167053e-02,-4.483215510845184326e-02,-1.685013435781002045e-02
,5.871016997843980789e-03,1.998825930058956146e-02,-2.479218691587448120e-02,-1.526015694253146648e-04,7.596504874527454376e-03,-2.446643449366092682e-02,1.954139582812786102e-02,-2.301562950015068054e-02,-6.340298801660537720e-02,4.124919325113296509e-02
,-4.497343674302101135e-03,-1.830202527344226837e-02,2.193444781005382538e-02,-1.191079616546630859e-02,-8.847606368362903595e-03,-2.420342899858951569e-02,-2.703911252319812775e-02,7.484971545636653900e-03,2.595521882176399231e-02,1.196916867047548294e-02
,1.902500726282596588e-02,3.323673084378242493e-02,-3.114206157624721527e-02,-6.618720013648271561e-03,-1.777137443423271179e-02,-1.382093410938978195e-02,-1.190008409321308136e-02,-3.083303570747375488e-02,1.668620854616165161e-02,-2.661808952689170837e-02
,2.418290451169013977e-02,-1.516523957252502441e-02,1.884468644857406616e-02,-3.891123831272125244e-02,5.375257879495620728e-02,-5.866309627890586853e-02,-1.550206914544105530e-02,-3.017280250787734985e-02,-8.020174573175609112e-04,1.611005328595638275e-02
,1.390413194894790649e-02,-2.697906456887722015e-02,-1.130007207393646240e-02,4.416997358202934265e-02,-2.702719531953334808e-02,-3.356369584798812866e-02,3.380482085049152374e-03,-2.233196981251239777e-02,-6.449628621339797974e-02,2.189647778868675232e-02
,7.618780434131622314e-02,-2.181801944971084595e-02,-1.039236783981323242e-03,4.705564305186271667e-02,9.146672487258911133e-02,-8.387979865074157715e-02,8.057233691215515137e-02,1.423514261841773987e-02,1.271793525665998459e-02,1.068141590803861618e-02
,2.112565562129020691e-03,1.391641609370708466e-02,-2.459886297583580017e-02,5.331889912486076355e-02,-2.175640501081943512e-02,-3.522657230496406555e-02,4.377651959657669067e-03,1.493875868618488312e-02,-4.584087803959846497e-02,3.563319519162178040e-02
,2.235716383438557386e-04,2.743674442172050476e-02,-6.168073043227195740e-03,3.780815377831459045e-02,1.544093340635299683e-02,5.820490885525941849e-03,9.572187438607215881e-03,-4.492204170674085617e-03,-3.168669342994689941e-02,-1.396246440708637238e-02
,-1.403192058205604553e-02,-1.642122864723205566e-02,-2.422510832548141479e-02,-1.788511499762535095e-02,3.917891532182693481e-02,1.870176196098327637e-02,-5.501045286655426025e-02,-2.576101571321487427e-02,-1.666931621730327606e-02,1.397604239173233509e-03
,7.032222114503383636e-03,-1.165687199681997299e-02,1.705899834632873535e-03,2.188926562666893005e-02,-7.092627137899398804e-02,1.985433883965015411e-02,3.696117922663688660e-02,8.736882358789443970e-03,-7.140510529279708862e-02,-5.858569638803601265e-04
,2.529502846300601959e-02,-1.002923771739006042e-02,-1.154010184109210968e-02,-3.460641950368881226e-03,4.943393543362617493e-02,-2.593166008591651917e-02,-2.496200986206531525e-02,1.623764261603355408e-02,2.663175389170646667e-02,5.286092311143875122e-02
,-8.725838735699653625e-03,1.684633642435073853e-02,-7.419941946864128113e-03,1.956964842975139618e-02,7.042611017823219299e-03,-6.713788956403732300e-02,2.248374558985233307e-02,1.795422285795211792e-02,-5.869877710938453674e-02,3.971377015113830566e-02
,1.116743870079517365e-02,-1.347444206476211548e-02,1.549989636987447739e-02,-4.853836447000503540e-02,9.409293532371520996e-03,-9.003686718642711639e-04,-2.937272749841213226e-02,-2.525908872485160828e-03,-1.265708450227975845e-02,1.125198695808649063e-02
,9.601268172264099121e-02,-1.285902783274650574e-02,7.226068526506423950e-03,3.144963085651397705e-02,6.885640323162078857e-02,-4.719299823045730591e-02,3.830973431468009949e-02,2.844866551458835602e-02,3.608943521976470947e-02,2.541609480977058411e-02
,-1.052304729819297791e-02,-2.632964216172695160e-02,1.978305727243423462e-02,-1.324801146984100342e-02,5.461870133876800537e-02,2.729760482907295227e-03,8.995471522212028503e-03,-1.508135581389069557e-03,8.290205150842666626e-03,8.093959651887416840e-03
,-5.635627545416355133e-03,-3.564803861081600189e-03,2.906952053308486938e-03,-3.351843683049082756e-03,-1.056826114654541016e-02,-1.874916441738605499e-02,-7.194417528808116913e-03,1.442580856382846832e-02,-2.220924757421016693e-02,-2.477055229246616364e-02
,1.538810692727565765e-02,5.006643757224082947e-02,1.852225326001644135e-02,-1.888097450137138367e-02,2.984455414116382599e-02,-2.602424658834934235e-02,1.536332350224256516e-02,-1.983845978975296021e-02,5.721507221460342407e-02,6.239802110940217972e-03
,-1.752026379108428955e-02,-1.084458455443382263e-02,-2.922343648970127106e-02,2.969206310808658600e-02,4.349986091256141663e-02,-4.597369953989982605e-02,7.752665784209966660e-03,1.478803437203168869e-02,-1.386907510459423065e-02,-3.537178039550781250e-02
,2.672129869461059570e-02,1.576650887727737427e-02,-2.284722402691841125e-02,-1.146186422556638718e-02,1.743430085480213165e-02,-2.293982170522212982e-02,-1.478623878210783005e-02,-2.103422023355960846e-02,-2.457785792648792267e-02,1.200934872031211853e-02
,2.859872020781040192e-02,-1.836554892361164093e-02,-1.191556081175804138e-02,1.274245791137218475e-02,-1.382143609225749969e-02,-1.983193494379520416e-02,-8.281979709863662720e-03,3.347867354750633240e-02,-4.718599468469619751e-02,-9.946267819032073021e-04
,3.342327428981661797e-03,2.944112569093704224e-02,1.186219602823257446e-02,-2.029100246727466583e-02,1.111746672540903091e-02,1.857514865696430206e-02,-5.459242500364780426e-03,-3.139001876115798950e-02,2.354915067553520203e-02,-2.837517857551574707e-02
,-1.534930197522044182e-03,-1.593267358839511871e-02,-2.196522057056427002e-02,-8.292785845696926117e-03,2.184097468852996826e-02,3.713224083185195923e-02,1.209142711013555527e-02,-3.234518691897392273e-02,2.522282674908638000e-02,-1.736685074865818024e-02
,-2.015239000320434570e-02,-7.352008949965238571e-03,1.889863237738609314e-02,2.580890059471130371e-02,-3.948132041841745377e-03,4.491551965475082397e-02,1.984778232872486115e-02,-3.413251042366027832e-02,9.496339596807956696e-03,-2.310703881084918976e-02
,1.840644329786300659e-02,1.222209259867668152e-02,-3.075946122407913208e-02,2.268991200253367424e-03,-1.983309350907802582e-02,5.209921300411224365e-02,5.713100545108318329e-03,-2.123701386153697968e-02,-8.723286911845207214e-03,2.115806005895137787e-02
,2.209730446338653564e-02,2.208545617759227753e-02,3.782182931900024414e-03,1.584803685545921326e-02,-6.265587359666824341e-02,4.827245138585567474e-03,-8.596128784120082855e-03,2.018944919109344482e-02,-6.555929780006408691e-02,7.423193752765655518e-02
,3.049734747037291527e-03,-5.651587154716253281e-03,3.297318518161773682e-02,4.097858443856239319e-03,-6.704228464514017105e-03,2.155047468841075897e-02,-2.004048787057399750e-02,2.694275602698326111e-02,9.372917003929615021e-03,1.508204545825719833e-02
,-1.559282559901475906e-02,2.871998213231563568e-02,9.342532604932785034e-03,2.435685833916068077e-03,-2.652667462825775146e-02,-1.279314234852790833e-02,-1.542928075650706887e-04,2.133493684232234955e-02,1.564110815525054932e-02,3.254767507314682007e-02
,2.267041616141796112e-02,-2.859590202569961548e-02,2.387150004506111145e-02,-4.587367642670869827e-03,-2.558804303407669067e-02,-2.021740423515439034e-03,-3.719689697027206421e-02,2.303262427449226379e-02,-8.785413578152656555e-03,3.608189150691032410e-02
,-1.718800514936447144e-02,-3.399273846298456192e-04,2.496610581874847412e-02,2.877592295408248901e-02,-8.587138727307319641e-03,1.281810458749532700e-02,-2.418475970625877380e-02,3.073337487876415253e-02,1.484481152147054672e-02,4.175907373428344727e-02
,-1.109503023326396942e-02,-2.306672185659408569e-02,-2.180455066263675690e-02,-1.886937301605939865e-03,1.566531322896480560e-02,1.839492842555046082e-02,-2.729338407516479492e-02,-9.570970200002193451e-03,-4.244585707783699036e-02,2.407222613692283630e-02
,4.873950965702533722e-03,9.735641069710254669e-03,-7.946012541651725769e-03,-1.815799623727798462e-02,4.727905616164207458e-02,-3.209743276238441467e-02,3.808098658919334412e-02,-2.560307271778583527e-02,3.868241980671882629e-02,-1.580445654690265656e-02
,-1.885526813566684723e-03,-3.100169822573661804e-02,4.579763859510421753e-03,-5.646342877298593521e-03,-2.046248875558376312e-02,1.024925336241722107e-02,4.021428525447845459e-03,-7.369888480752706528e-03,-1.718307845294475555e-02,2.280472405254840851e-02
,2.986924722790718079e-02,-3.363317996263504028e-02,-2.811318822205066681e-02,4.447795823216438293e-02,4.802871029824018478e-03,-1.858614943921566010e-02,1.722619682550430298e-02,-1.761926151812076569e-02,-3.835757821798324585e-02,5.635160207748413086e-02
,2.200723811984062195e-02,-1.838374882936477661e-02,-1.325007062405347824e-03,-1.330006774514913559e-02,-1.807519933208823204e-03,2.780275978147983551e-02,2.701691351830959320e-03,-1.775960624217987061e-02,-2.034843899309635162e-02,-1.377176214009523392e-02
,1.959596574306488037e-02,-3.075415268540382385e-02,8.284151554107666016e-03,2.334340941160917282e-03,3.477625548839569092e-02,-1.101784501224756241e-02,-7.295146584510803223e-03,-1.669208286330103874e-03,-1.893251389265060425e-02,2.986527606844902039e-02
,-3.221840411424636841e-02,1.951226405799388885e-02,-2.104206383228302002e-02,3.703910112380981445e-02,-2.075439132750034332e-02,4.723597317934036255e-02,1.007420662790536880e-02,1.303203869611024857e-02,2.781523950397968292e-02,-7.078701164573431015e-03
,3.236616030335426331e-02,-8.168841712176799774e-03,4.231903702020645142e-03,-1.994709111750125885e-02,-5.092794820666313171e-02,3.081369586288928986e-02,-2.833855524659156799e-02,-3.338328748941421509e-02,-1.906754821538925171e-02,4.512894153594970703e-02
,7.742095738649368286e-02,1.004590839147567749e-02,-1.290765963494777679e-02,-1.159661478595808148e-04,-3.744544833898544312e-02,-6.896638870239257812e-02,1.075400635600090027e-01,-1.912060566246509552e-02,-4.159088432788848877e-02,7.415790110826492310e-02
,-1.427174196578562260e-03,-2.389510348439216614e-02,-1.837618276476860046e-02,4.090091958642005920e-02,1.326896133832633495e-03,-5.151137709617614746e-03,-2.663449267856776714e-04,-3.157921507954597473e-02,4.552385653369128704e-04,4.418298974633216858e-02
,-9.887423366308212280e-03,1.704822666943073273e-02,3.179334104061126709e-02,-1.588158309459686279e-03,1.885586790740489960e-02,8.365116082131862640e-03,-1.622300595045089722e-02,1.011974271386861801e-02,-1.094928663223981857e-02,-1.504269056022167206e-02
,1.398877333849668503e-02,2.227314561605453491e-02,2.734114043414592743e-02,1.841477490961551666e-02,-2.404008992016315460e-02,1.608197391033172607e-02,-4.239518567919731140e-02,3.080358169972896576e-02,-1.735811680555343628e-02,2.155021950602531433e-02
,6.135399453341960907e-03,-2.432300336658954620e-02,1.696335896849632263e-02,3.464975580573081970e-02,-4.955844208598136902e-02,1.696315780282020569e-02,5.510471761226654053e-03,2.709750644862651825e-02,-3.080804087221622467e-02,4.589537624269723892e-03
,-3.043775074183940887e-02,9.682616218924522400e-03,-3.327772393822669983e-02,3.586515551432967186e-03,-4.678631201386451721e-02,8.460786938667297363e-02,7.242631982080638409e-04,6.434900686144828796e-03,2.706134319305419922e-02,-3.213461488485336304e-02
,3.684401512145996094e-02,2.068813703954219818e-02,-1.797147095203399658e-03,2.405290305614471436e-02,-3.407001122832298279e-02,3.553219139575958252e-02,-2.132896520197391510e-02,2.271972037851810455e-02,-5.099489912390708923e-02,5.568407848477363586e-02
,-2.727229730226099491e-04,9.639270720072090626e-04,-2.850374439731240273e-03,-1.568248495459556580e-02,-5.722475470975041389e-04,2.009130083024501801e-02,-1.479252520948648453e-02,1.398451160639524460e-02,-7.635409710928797722e-04,2.376923896372318268e-02
,3.739658743143081665e-02,4.702290520071983337e-02,2.174556255340576172e-03,-9.435236454010009766e-03,5.429523438215255737e-02,-8.659730106592178345e-02,5.847061425447463989e-02,-1.258263736963272095e-02,1.936371624469757080e-02,-1.187593583017587662e-02
,9.746846044436097145e-04,-2.141790278255939484e-02,-7.724717259407043457e-03,1.330402959138154984e-02,-2.180170267820358276e-02,3.519370406866073608e-02,-6.344174034893512726e-03,-3.112496109679341316e-03,-3.235312923789024353e-02,3.347264602780342102e-02
,2.729519084095954895e-02,-8.817791938781738281e-03,-1.165216229856014252e-02,-2.817190997302532196e-02,1.354166772216558456e-02,7.293243892490863800e-03,1.019638869911432266e-02,-2.919131703674793243e-02,5.201029125601053238e-03,-1.117716263979673386e-02
,5.432192981243133545e-02,4.872307926416397095e-02,-1.015973184257745743e-02,-4.303644597530364990e-02,-3.606224805116653442e-02,-1.262800395488739014e-02,7.581491488963365555e-03,-5.179616063833236694e-02,-7.985038310289382935e-02,2.616453170776367188e-02
,3.803706541657447815e-02,3.779570758342742920e-02,7.390368729829788208e-03,-2.146898210048675537e-02,4.308416973799467087e-03,-4.273836687207221985e-02,-3.236769000068306923e-03,2.766227908432483673e-02,-4.042496159672737122e-02,3.157161548733711243e-02
,-2.511939220130443573e-02,9.623980149626731873e-03,-2.503396198153495789e-02,3.450090065598487854e-02,-2.582986094057559967e-02,-1.786835677921772003e-02,-1.529571227729320526e-02,6.164458580315113068e-03,-3.992798179388046265e-02,-1.589025557041168213e-02
,2.199308946728706360e-02,1.134140789508819580e-02,1.347074843943119049e-02,3.111950866878032684e-02,1.435338519513607025e-02,1.664765179157257080e-02,1.211757399141788483e-02,-6.640566047281026840e-03,-8.702948689460754395e-03,1.039703562855720520e-02
,-2.203485928475856781e-02,1.168352086097002029e-02,6.885673850774765015e-03,1.742505840957164764e-02,-3.316760435700416565e-02,-1.846947474405169487e-03,-2.348278835415840149e-02,1.548253465443849564e-02,-1.213123835623264313e-02,-2.285940386354923248e-02
,2.867065556347370148e-02,9.788526222109794617e-03,4.394456744194030762e-03,-9.456465020775794983e-03,2.461615763604640961e-02,1.683306181803345680e-04,6.246322765946388245e-03,-2.696053497493267059e-02,2.395616844296455383e-02,-1.928809285163879395e-02
,2.107563987374305725e-02,-3.817902877926826477e-02,3.318107873201370239e-02,4.550881683826446533e-02,-3.510056808590888977e-02,-1.975672552362084389e-03,2.600149996578693390e-02,2.184139937162399292e-02,-1.249098312109708786e-02,2.210973948240280151e-02
,3.608228638768196106e-02,-7.207289338111877441e-03,-2.853992581367492676e-02,2.454042900353670120e-03,-1.306827552616596222e-02,2.368667349219322205e-02,-6.415386497974395752e-02,-7.539379410445690155e-03,-2.879698947072029114e-02,3.780578076839447021e-02
,6.961226463317871094e-02,-2.703990787267684937e-02,-2.276517450809478760e-02,2.267374470829963684e-02,-4.347812756896018982e-02,2.673021145164966583e-02,-1.773431710898876190e-02,-1.901224628090858459e-02,-9.382354468107223511e-02,5.317310988903045654e-02
,2.140322141349315643e-02,-1.517765223979949951e-02,2.773898094892501831e-02,2.931557968258857727e-02,-1.489454298280179501e-03,-1.220900379121303558e-02,1.474649365991353989e-02,1.773007027804851532e-02,2.349575422704219818e-02,1.779240556061267853e-02
,-3.878019750118255615e-03,2.149848081171512604e-02,-1.972369663417339325e-02,2.678558044135570526e-02,-3.970126435160636902e-02,-2.740644849836826324e-02,4.480902105569839478e-02,2.752190642058849335e-02,-7.369095832109451294e-02,2.990994602441787720e-02
,2.826831070706248283e-03,2.554889395833015442e-02,-2.261822344735264778e-03,2.931383624672889709e-02,-4.064577165991067886e-03,1.799117401242256165e-02,-7.917110808193683624e-03,-1.084486767649650574e-02,-2.347453124821186066e-02,-2.209665812551975250e-02
,8.150226436555385590e-03,3.010732121765613556e-02,-6.493183318525552750e-03,3.370531275868415833e-02,1.492170244455337524e-02,-7.621994707733392715e-03,-3.272639214992523193e-02,-1.437053922563791275e-02,-2.041289396584033966e-02,2.662112563848495483e-02
,-1.169689348898828030e-03,3.045599907636642456e-02,-1.791366748511791229e-02,2.028465457260608673e-02,-1.470427669119089842e-04,2.437660843133926392e-02,2.439762931317090988e-03,7.809043861925601959e-03,-4.079192131757736206e-02,1.624684431590139866e-03
,4.833966121077537537e-02,4.395270347595214844e-02,2.958311140537261963e-02,3.314791619777679443e-02,2.396524697542190552e-02,-3.018226241692900658e-03,6.264230702072381973e-03,1.909499056637287140e-03,-2.992522716522216797e-02,2.980824932456016541e-02
,-2.058579772710800171e-02,2.025035675615072250e-03,1.288253348320722580e-02,2.242030762135982513e-02,-1.297648530453443527e-02,-2.369158342480659485e-02,-1.922984607517719269e-02,-1.860433956608176231e-03,-1.068769255653023720e-03,-9.482752531766891479e-03
,1.352422870695590973e-02,1.842798478901386261e-02,-1.452120207250118256e-02,6.951770745217800140e-03,-4.413165897130966187e-02,-1.874524168670177460e-02,1.349104009568691254e-02,-2.476451732218265533e-02,-4.639856517314910889e-02,2.711908146739006042e-02
,-8.563386276364326477e-03,-1.033222395926713943e-02,2.783974818885326385e-02,5.484356544911861420e-03,2.567382156848907471e-02,-6.494658067822456360e-03,1.760201342403888702e-02,-2.039623446762561798e-03,1.683571934700012207e-02,3.211932629346847534e-02
,-1.989794522523880005e-02,-1.131014805287122726e-02,2.475104667246341705e-02,2.840157598257064819e-03,1.860794052481651306e-02,5.109208170324563980e-03,2.357909828424453735e-02,-1.903257519006729126e-02,8.503902703523635864e-03,-1.191426068544387817e-02
,6.014075875282287598e-02,-6.349800620228052139e-03,3.708632430061697960e-03,4.229979217052459717e-02,-4.013000056147575378e-02,4.214516654610633850e-02,2.002661488950252533e-02,1.639617048203945160e-02,-5.898219719529151917e-02,-1.389306597411632538e-02
,3.415269777178764343e-02,1.405464112758636475e-02,-1.296492479741573334e-02,2.156567201018333435e-02,-1.469176542013883591e-02,-2.209894591942429543e-03,3.136218991130590439e-03,2.871203050017356873e-02,-9.336014278233051300e-03,4.932708293199539185e-02
,2.844031713902950287e-02,2.036350220441818237e-02,2.390158921480178833e-02,2.796298637986183167e-02,-6.902330205775797367e-04,-9.745791554450988770e-03,1.722030527889728546e-02,-2.500177361071109772e-02,-5.222817510366439819e-02,6.310050934553146362e-02
,4.085399582982063293e-02,-3.648203611373901367e-02,-1.385248824954032898e-02,4.837183281779289246e-03,-3.670790046453475952e-02,2.419144660234451294e-02,-3.955401480197906494e-02,1.295862253755331039e-02,3.286230494268238544e-04,4.027612507343292236e-02
,7.848164066672325134e-03,-2.455264516174793243e-02,3.596987575292587280e-03,1.278160605579614639e-02,-1.913626119494438171e-02,6.097663193941116333e-02,-3.909396938979625702e-03,-3.272598236799240112e-02,-2.098345570266246796e-02,-5.316192982718348503e-04
,3.110517561435699463e-02,-3.564369399100542068e-03,-2.230270765721797943e-02,3.814177121967077255e-03,-7.280050776898860931e-04,1.500201318413019180e-02,-4.798017814755439758e-02,-3.315791860222816467e-02,-1.524928305298089981e-02,8.691012859344482422e-03
,8.255714550614356995e-03,2.093368954956531525e-02,-2.466720528900623322e-02,-1.179194357246160507e-02,-4.084630683064460754e-02,3.849977627396583557e-02,-1.866753213107585907e-02,-2.102366089820861816e-02,-1.155604422092437744e-02,4.371996503323316574e-03
,4.192014038562774658e-02,3.191648423671722412e-02,-1.488292589783668518e-02,1.017201784998178482e-02,-2.236899919807910919e-02,3.348685801029205322e-02,5.055210739374160767e-02,-1.415629684925079346e-02,-3.537225723266601562e-02,-1.067284774035215378e-02
,2.685601450502872467e-02,1.170016173273324966e-02,1.064686849713325500e-02,1.179137919098138809e-02,-1.662692800164222717e-02,1.673311553895473480e-02,-4.688205197453498840e-03,6.286208052188158035e-03,-5.757981911301612854e-02,-3.574511210899800062e-04
,-1.412635296583175659e-02,-2.342439070343971252e-02,-1.971582695841789246e-02,2.826478099450469017e-03,-1.935415901243686676e-02,-8.386402390897274017e-03,-1.949537172913551331e-02,2.206312306225299835e-02,-5.069432407617568970e-02,-2.486141584813594818e-02
,8.447335660457611084e-02,6.313372403383255005e-03,-2.341166138648986816e-02,2.391737326979637146e-02,2.087646350264549255e-02,-1.287431083619594574e-02,8.791112340986728668e-03,9.299503639340400696e-03,-1.180682424455881119e-02,2.788743749260902405e-02
,-7.710254751145839691e-03,5.523590836673974991e-03,-1.125823706388473511e-02,-1.105022802948951721e-02,5.166838411241769791e-03,1.479010190814733505e-02,-3.319673985242843628e-02,1.033798698335886002e-02,8.514244109392166138e-03,3.156820684671401978e-02
,-2.072402043268084526e-03,6.127755157649517059e-03,-2.256293222308158875e-02,1.506206765770912170e-02,-2.731779962778091431e-02,4.761637654155492783e-03,-2.465745620429515839e-02,-3.533432632684707642e-02,-2.003840170800685883e-02,6.282165180891752243e-03
,4.508524760603904724e-02,7.698041386902332306e-03,-1.863926835358142853e-02,-3.035293705761432648e-02,-5.700402334332466125e-02,2.307950705289840698e-02,-1.270173303782939911e-02,-3.805514425039291382e-02,-2.957606688141822815e-02,6.682160496711730957e-02
,4.159123823046684265e-02,1.374290976673364639e-02,2.148737013339996338e-02,-8.526616729795932770e-03,-3.557036817073822021e-02,-5.019821599125862122e-02,2.584292925894260406e-02,6.643345579504966736e-03,-1.510259974747896194e-02,6.324489135295152664e-03
,-3.048442769795656204e-03,1.585973310284316540e-03,-2.754651941359043121e-02,7.746771443635225296e-03,1.344404835253953934e-02,-1.199837308377027512e-02,2.874317392706871033e-02,-1.106250216253101826e-03,-1.882726512849330902e-02,-1.278078416362404823e-03
,3.809507563710212708e-02,3.004911728203296661e-02,2.435895614326000214e-02,-1.021754462271928787e-02,2.814351394772529602e-02,2.667469531297683716e-02,-2.214813046157360077e-02,-1.193074695765972137e-02,-5.159756541252136230e-02,1.486211642622947693e-02
,1.796799898147583008e-02,-1.143520046025514603e-02,3.172855824232101440e-02,2.948901057243347168e-02,-6.222407333552837372e-03,-1.267870794981718063e-02,2.579723112285137177e-02,-1.083546970039606094e-02,3.083614446222782135e-02,4.364891443401575089e-03
,9.883126476779580116e-04,-6.166886538267135620e-03,-2.207328751683235168e-02,1.744066923856735229e-02,2.248049527406692505e-02,5.652844905853271484e-03,2.325557544827461243e-02,-3.040136583149433136e-02,-1.688132033450528979e-04,-1.179238874465227127e-02
,1.747268624603748322e-02,3.164257481694221497e-02,2.610758692026138306e-02,-4.419032856822013855e-02,-2.309300936758518219e-03,-2.326756343245506287e-02,-2.947448007762432098e-02,-1.186102349311113358e-02,-1.766889938153326511e-03,6.051664240658283234e-03
,-1.436033099889755249e-02,-2.062644809484481812e-02,1.754007115960121155e-02,8.320938795804977417e-03,1.013374608010053635e-02,1.973331719636917114e-02,-3.807879984378814697e-02,-2.938735671341419220e-02,-5.054308474063873291e-02,-2.765554562211036682e-02
,6.345123052597045898e-02,7.038766983896493912e-03,1.197754591703414917e-02,-7.504418957978487015e-03,2.169341593980789185e-02,-5.094208288937807083e-03,-1.443189568817615509e-02,-2.420073933899402618e-02,-4.626206681132316589e-02,5.669895559549331665e-02
,1.466237660497426987e-02,1.173696480691432953e-02,3.171706944704055786e-02,1.960115693509578705e-02,-2.906846068799495697e-02,-2.734136581420898438e-02,-2.796255052089691162e-02,2.249828167259693146e-02,-1.062399707734584808e-02,1.631687395274639130e-02
,2.681365050375461578e-02,1.929268054664134979e-02,3.112927079200744629e-03,-2.099408954381942749e-02,1.727802306413650513e-02,-2.075455524027347565e-02,-2.293795160949230194e-02,1.373051851987838745e-02,4.337813705205917358e-03,5.734702572226524353e-02
,3.091384097933769226e-02,2.130856364965438843e-02,1.004366483539342880e-02,6.594398990273475647e-03,-1.307880273088812828e-03,2.301546931266784668e-02,-1.820865459740161896e-02,1.625384762883186340e-02,-3.876358643174171448e-02,3.272382915019989014e-02
,-2.027903683483600616e-02,2.302347309887409210e-02,-1.705943979322910309e-02,2.032219432294368744e-02,-5.129498429596424103e-03,-1.798263937234878540e-02,4.207596182823181152e-03,1.402692869305610657e-03,5.752018652856349945e-03,3.601297363638877869e-02
,-1.367253437638282776e-02,-1.768225803971290588e-02,9.852942079305648804e-03,1.483862847089767456e-02,1.259160228073596954e-02,-1.812198385596275330e-02,-6.095226854085922241e-03,-2.470403164625167847e-02,-4.080259799957275391e-02,-2.077746205031871796e-03
,5.751262232661247253e-02,2.480835467576980591e-02,2.305247262120246887e-02,-4.000457376241683960e-02,-2.705608680844306946e-02,5.879661068320274353e-03,-5.961964838206768036e-03,-3.630398213863372803e-02,7.031694520264863968e-03,5.922139436006546021e-02
,4.572997335344552994e-03,-1.884299330413341522e-02,2.760457573458552361e-03,-1.627562567591667175e-02,-1.992167904973030090e-02,1.054724212735891342e-02,-3.497144207358360291e-02,1.433919183909893036e-02,5.460988264530897141e-03,1.067901123315095901e-02
,6.097237020730972290e-02,-3.270839527249336243e-02,-2.290464937686920166e-02,3.677461296319961548e-02,6.784574128687381744e-03,4.097839351743459702e-03,-3.865764290094375610e-02,-2.560317330062389374e-02,-4.403989762067794800e-02,2.734535373747348785e-03
,-1.089675910770893097e-02,-2.928184717893600464e-02,-2.022079937160015106e-02,1.542926300317049026e-03,-2.931573428213596344e-02,4.668058361858129501e-03,6.090643815696239471e-03,-2.552504464983940125e-02,1.888751983642578125e-02,-3.879214636981487274e-04
,1.823538914322853088e-02,-1.177732180804014206e-02,2.859429456293582916e-03,1.496075000613927841e-02,6.370170507580041885e-03,-9.765356779098510742e-03,9.931287728250026703e-03,4.442471079528331757e-03,-4.214245360344648361e-03,-2.320703305304050446e-02
,-1.482994202524423599e-02,3.890763595700263977e-02,1.346964389085769653e-02,-4.163957014679908752e-02,-7.667876314371824265e-03,-3.102965839207172394e-02,-1.947820186614990234e-02,2.607757039368152618e-02,-3.231761604547500610e-02,-1.696750894188880920e-02
,-9.236213751137256622e-03,-2.331336960196495056e-03,-2.007883042097091675e-03,4.189288616180419922e-02,7.770899217575788498e-03,2.120118401944637299e-02,6.012017372995615005e-03,-2.526948228478431702e-02,-3.276295587420463562e-02,4.717764444649219513e-03
,5.328858643770217896e-02,-2.030263468623161316e-02,-2.292459830641746521e-02,5.052393302321434021e-02,-1.942587085068225861e-02,2.111955545842647552e-03,-2.298728749155998230e-02,2.040600217878818512e-02,-8.757171779870986938e-02,3.314515575766563416e-02
,-6.082577165216207504e-03,-2.646356634795665741e-02,2.055346965789794922e-02,-1.849291031248867512e-03,-1.911183446645736694e-02,-2.552004531025886536e-02,-1.569754444062709808e-02,1.617838442325592041e-02,-5.244389176368713379e-02,-1.862458325922489166e-02
,3.860867768526077271e-02,-1.912838034331798553e-02,-2.321403846144676208e-02,4.858451336622238159e-02,5.100781098008155823e-02,-1.802995614707469940e-02,1.168157439678907394e-02,2.073364518582820892e-02,-4.697228968143463135e-02,1.689271815121173859e-02
,3.935327008366584778e-02,2.935400791466236115e-02,-1.324638817459344864e-02,-7.561523001641035080e-03,-3.018679283559322357e-02,1.423993613570928574e-02,1.546315196901559830e-02,-2.924418775364756584e-03,2.911086380481719971e-02,3.524560853838920593e-02
,3.297182917594909668e-02,2.042047679424285889e-02,-1.763152517378330231e-02,-2.698873169720172882e-02,9.968126192688941956e-03,-3.700567409396171570e-02,-3.337525948882102966e-02,-2.145148627460002899e-02,-6.111704278737306595e-03,2.755478769540786743e-02
,3.396240994334220886e-02,4.741325229406356812e-02,2.761373668909072876e-02,-5.878671258687973022e-02,-4.081116989254951477e-02,1.161508075892925262e-02,2.776807732880115509e-02,-2.914075367152690887e-02,-1.320410054177045822e-02,2.282657101750373840e-02
,1.802331209182739258e-02,1.290513551793992519e-03,-8.365690708160400391e-03,2.416782779619097710e-03,-1.056156679987907410e-02,7.907073013484477997e-03,-2.825615368783473969e-02,-2.325871214270591736e-02,-1.908256905153393745e-03,-7.184677757322788239e-03
,3.292855620384216309e-02,3.709147870540618896e-02,-1.292153540998697281e-02,-3.698655217885971069e-02,1.263924967497587204e-02,3.436126187443733215e-02,1.736473641358315945e-03,-2.338945493102073669e-02,-4.170599952340126038e-02,-1.329572591930627823e-02
,1.767211966216564178e-02,3.131061419844627380e-02,-2.016705647110939026e-02,6.832688581198453903e-03,-2.981501631438732147e-02,-2.517018280923366547e-02,-1.425399538129568100e-02,1.318922638893127441e-02,-4.064217209815979004e-03,4.580168798565864563e-02
,-2.839916758239269257e-02,-3.483541775494813919e-03,9.096238762140274048e-03,-1.141939498484134674e-02,-2.136362902820110321e-02,-2.273860014975070953e-02,5.466694943606853485e-03,-3.236861154437065125e-02,8.624656125903129578e-03,-3.340112790465354919e-02
,9.646662510931491852e-03,-9.916182607412338257e-03,-2.975084818899631500e-02,5.494205746799707413e-03,-1.796591654419898987e-02,-3.206085041165351868e-02,-3.305957838892936707e-02,3.772318450501188636e-05,-1.054538134485483170e-02,2.501223795115947723e-02
,1.155837811529636383e-02,1.248447503894567490e-02,-6.085411179810762405e-03,5.921068787574768066e-02,3.328938409686088562e-02,-4.494410008192062378e-02,-1.495548151433467865e-02,-3.101029433310031891e-02,-2.163057401776313782e-02,2.657326310873031616e-02
,-7.359548937529325485e-03,2.616415172815322876e-02,1.593736186623573303e-02,-4.087062086910009384e-03,8.743613027036190033e-03,-4.239670000970363617e-03,1.758952811360359192e-02,7.454053033143281937e-03,2.219734340906143188e-02,8.084479719400405884e-03
,1.861553452908992767e-02,-2.235174365341663361e-02,-1.168182003311812878e-03,-2.236937358975410461e-02,1.121898088604211807e-02,1.971036382019519806e-02,1.201395876705646515e-02,3.030260279774665833e-02,-1.922220364212989807e-02,-2.715529128909111023e-02
,2.723721787333488464e-02,-2.153267711400985718e-02,-6.548755802214145660e-03,2.633586712181568146e-02,2.568603260442614555e-03,9.418237954378128052e-03,-3.439272986724972725e-04,-2.772706560790538788e-02,-1.881248690187931061e-02,1.830601133406162262e-02
,1.784223131835460663e-02,-2.167829498648643494e-02,3.058908134698867798e-02,2.063385583460330963e-02,8.402845123782753944e-04,-2.214769832789897919e-02,8.581360802054405212e-03,-1.657769456505775452e-02,-1.739987544715404510e-02,3.503992687910795212e-03
,1.183880772441625595e-02,-4.793515894562005997e-03,3.114960342645645142e-02,-2.283068932592868805e-02,1.060434989631175995e-02,2.850910881534218788e-03,2.381096407771110535e-02,-2.602730318903923035e-02,-1.679030060768127441e-02,-1.856495253741741180e-02
,3.155774204060435295e-03,-2.598555944859981537e-02,1.611423864960670471e-02,-8.053635247051715851e-04,2.922618947923183441e-02,-4.196698963642120361e-02,2.367947623133659363e-02,-3.255752846598625183e-02,2.507856581360101700e-03,-2.083050832152366638e-02
,-1.065655332058668137e-02,3.316820785403251648e-02,-2.094378881156444550e-02,-1.005663629621267319e-02,2.919597737491130829e-02,2.727119065821170807e-02,1.860730722546577454e-02,4.857116378843784332e-03,-7.848899811506271362e-03,-3.134226053953170776e-02
,3.860121825709939003e-03,1.785837672650814056e-02,1.136026903986930847e-02,4.652719199657440186e-02,2.895030193030834198e-04,2.287308161612600088e-04,-4.319448396563529968e-02,1.377546507865190506e-02,2.843848802149295807e-02,-3.425607830286026001e-02
