#include "NN_model.h"
#include "NN_library.h"
float layer1_w[8][8] = {
		{4.036577343940734863e-01,-4.799880683422088623e-01,-4.862253367900848389e-01,3.624153733253479004e-01,-5.892602205276489258e-01,9.296818971633911133e-01,6.446110010147094727e-01,-3.795948624610900879e-01},
		{5.478836894035339355e-01,-2.355242818593978882e-01,-4.105618596076965332e-01,-5.480391979217529297e-01,-3.622762262821197510e-01,-2.332476675510406494e-01,7.141476273536682129e-01,4.618710577487945557e-01},
		{2.637468278408050537e-01,-2.220359742641448975e-01,-4.879699349403381348e-01,-5.224313586950302124e-02,1.894478052854537964e-01,-2.720828354358673096e-01,-1.452973205596208572e-02,1.373327523469924927e-01},
		{-7.232695817947387695e-01,-2.704226411879062653e-02,-1.381042242050170898e+00,-9.116298556327819824e-01,-1.395873188972473145e+00,-9.801194667816162109e-01,-4.798179864883422852e-01,1.563567042350769043e+00},
		{3.810082748532295227e-02,7.720194756984710693e-02,-2.433357089757919312e-01,-1.091899037361145020e+00,4.492695927619934082e-01,3.029054105281829834e-01,-9.408476948738098145e-02,3.262923359870910645e-01},
		{3.118803203105926514e-01,-3.864842951297760010e-01,-3.360514938831329346e-01,-1.077666804194450378e-01,1.652356833219528198e-01,3.142955005168914795e-01,-7.307780385017395020e-01,4.354643523693084717e-01},
		{1.931863427162170410e-01,3.987090289592742920e-01,-2.449626475572586060e-01,-1.821265369653701782e-02,4.129417836666107178e-01,-1.087736263871192932e-01,6.193617582321166992e-01,1.483898013830184937e-01},
		{-4.029799997806549072e-01,-2.084286650642752647e-03,-4.513715207576751709e-01,-3.852052688598632812e-01,2.014266848564147949e-01,4.281116425991058350e-01,6.478797644376754761e-02,1.711222678422927856e-01}


};
float layer1_b[8] = {
		2.697977125644683838e-01,
		-1.054954156279563904e-01,
		2.323545813560485840e-01,
		1.880602538585662842e-01,
		2.855449914932250977e-01,
		3.200096189975738525e-01,
		4.346016347408294678e-01,
		3.047636747360229492e-01

};



float layer2_w[8][10] = {
		{2.378163486719131470e-01,-4.662542939186096191e-01,-7.421664595603942871e-01,4.079314172267913818e-01,3.247292339801788330e-02,1.474552303552627563e-01,7.327801585197448730e-01,3.659031689167022705e-01,-1.253296583890914917e-01,-3.376580178737640381e-01},
		{-6.848954409360885620e-02,-4.998685121536254883e-01,-1.616118103265762329e-01,-9.234283566474914551e-01,3.675978481769561768e-01,-8.227208256721496582e-01,1.338752955198287964e-01,-4.674588143825531006e-01,-1.323342770338058472e-01,-1.111552357673645020e+00},
		{8.377643823623657227e-01,-7.564556598663330078e-01,7.175377011299133301e-01,-5.215632915496826172e-01,1.754048168659210205e-01,-9.512861818075180054e-02,8.205898404121398926e-01,-5.115339159965515137e-02,-1.129400134086608887e+00,6.432478427886962891e-01},
		{7.434918880462646484e-01,-8.440281748771667480e-01,-2.876187264919281006e-01,4.773733764886856079e-02,1.260557323694229126e-01,2.298220992088317871e-02,1.277441531419754028e-01,-1.010576263070106506e-01,-6.217161193490028381e-02,-1.018097028136253357e-01},
		{3.843839466571807861e-01,1.797241866588592529e-01,-8.321248292922973633e-01,-8.008080124855041504e-01,6.155851483345031738e-01,-2.724461257457733154e-01,6.870368123054504395e-01,-3.268599212169647217e-01,4.821406602859497070e-01,-1.977669298648834229e-01},
		{1.294492334127426147e-01,4.701974987983703613e-01,-1.411028653383255005e-01,-2.978976666927337646e-01,8.880149126052856445e-01,5.965975522994995117e-01,1.000392064452171326e-01,3.641399145126342773e-01,-7.652228474617004395e-01,2.321117073297500610e-01},
		{9.715785086154937744e-02,-1.202353000640869141e+00,-6.081875041127204895e-02,3.062867224216461182e-01,4.633851647377014160e-01,-9.297721087932586670e-02,1.709134876728057861e-01,7.837049961090087891e-01,7.579570412635803223e-01,-6.363834738731384277e-01},
		{-6.590132117271423340e-01,-1.959377974271774292e-01,3.649089634418487549e-01,-4.164844751358032227e-02,-8.906189799308776855e-01,-3.937941417098045349e-02,-4.896620810031890869e-01,-2.685958743095397949e-01,-1.296655535697937012e-01,-7.729507684707641602e-01}

};

float layer2_b[10] = {
		2.051677256822586060e-01,
		-2.068566083908081055e-01,
		2.421688884496688843e-01,
		-3.760575652122497559e-01,
		2.658784687519073486e-01,
		7.091119140386581421e-02,
		2.249569147825241089e-01,
		2.576002776622772217e-01,
		-1.096043139696121216e-01,
		3.436625003814697266e-02

};

float layer3_w[10] = {
		-1.058088302612304688e+00,
		1.949882954359054565e-01,
		1.504503369331359863e+00,
		1.522838175296783447e-01,
		-1.105644464492797852e+00,
		-4.553056359291076660e-01,
		-8.826833963394165039e-01,
		-9.209680557250976562e-01,
		7.771839499473571777e-01,
		4.082832336425781250e-01


};

float layer3_b = 1.748306512832641602e+00;

void model(float data[8],float &dout)
{
	float layer1_res[8] = {0,0,0,0,0,0,0,0};
	float layer2_res[10] = {0,0,0,0,0,0,0,0,0,0};
	float final_res = 0;
	FC_layer_ReLU(data,8,8,(float *)layer1_w,(float *)layer1_b,(float *)layer1_res);
	FC_layer_ReLU(layer1_res,10,8,(float *)layer2_w,(float *)layer2_b,(float *)layer2_res);
	FC_layer_sigmoid_predict((float *)layer2_res,10,(float *)layer3_w,layer3_b,final_res);
	dout = final_res;
}
